<?xml version="1.0"?>
<opencv_storage>
<cascade>
  <stageType>BOOST</stageType>
  <featureType>HAAR</featureType>
  <height>20</height>
  <width>20</width>
  <stageParams>
    <boostType>GAB</boostType>
    <minHitRate>9.9500000476837158e-01</minHitRate>
    <maxFalseAlarm>5.0000000000000000e-01</maxFalseAlarm>
    <weightTrimRate>9.4999999999999996e-01</weightTrimRate>
    <maxDepth>1</maxDepth>
    <maxWeakCount>100</maxWeakCount></stageParams>
  <featureParams>
    <maxCatCount>0</maxCatCount>
    <featSize>1</featSize>
    <mode>BASIC</mode></featureParams>
  <stageNum>18</stageNum>
  <stages>
    <!-- stage 0 -->
    <_>
      <maxWeakCount>3</maxWeakCount>
      <stageThreshold>-9.3897908926010132e-01</stageThreshold>
      <weakClassifiers>
        <_>
          <internalNodes>
            0 -1 66 3.7041664123535156e-02</internalNodes>
          <leafValues>
            -7.8091108798980713e-01 8.2771897315979004e-01</leafValues></_>
        <_>
          <internalNodes>
            0 -1 169 -2.2187400609254837e-02</internalNodes>
          <leafValues>
            6.9698071479797363e-01 -7.4647837877273560e-01</leafValues></_>
        <_>
          <internalNodes>
            0 -1 187 7.9093165695667267e-03</internalNodes>
          <leafValues>
            -7.5300896167755127e-01 5.8841031789779663e-01</leafValues></_></weakClassifiers></_>
    <!-- stage 1 -->
    <_>
      <maxWeakCount>8</maxWeakCount>
      <stageThreshold>-1.5594408512115479e+00</stageThreshold>
      <weakClassifiers>
        <_>
          <internalNodes>
            0 -1 146 6.6207185387611389e-02</internalNodes>
          <leafValues>
            -6.1269146203994751e-01 7.4784278869628906e-01</leafValues></_>
        <_>
          <internalNodes>
            0 -1 65 3.4965813159942627e-02</internalNodes>
          <leafValues>
            -6.8559455871582031e-01 5.3033226728439331e-01</leafValues></_>
        <_>
          <internalNodes>
            0 -1 129 -8.9604745153337717e-04</internalNodes>
          <leafValues>
            3.0285710096359253e-01 -6.5102285146713257e-01</leafValues></_>
        <_>
          <internalNodes>
            0 -1 264 -4.6826004981994629e-03</internalNodes>
          <leafValues>
            5.5532956123352051e-01 -3.6889833211898804e-01</leafValues></_>
        <_>
          <internalNodes>
            0 -1 140 5.9774473309516907e-02</internalNodes>
          <leafValues>
            -2.3274850845336914e-01 8.7109559774398804e-01</leafValues></_>
        <_>
          <internalNodes>
            0 -1 184 7.7879293821752071e-03</internalNodes>
          <leafValues>
            -5.5083715915679932e-01 4.0127313137054443e-01</leafValues></_>
        <_>
          <internalNodes>
            0 -1 34 -8.0187484622001648e-02</internalNodes>
          <leafValues>
            7.6617532968521118e-01 -2.1376663446426392e-01</leafValues></_>
        <_>
          <internalNodes>
            0 -1 15 2.4962526559829712e-01</internalNodes>
          <leafValues>
            -1.7770324647426605e-01 8.0123382806777954e-01</leafValues></_></weakClassifiers></_>
    <!-- stage 2 -->
    <_>
      <maxWeakCount>8</maxWeakCount>
      <stageThreshold>-9.8311460018157959e-01</stageThreshold>
      <weakClassifiers>
        <_>
          <internalNodes>
            0 -1 74 4.1039705276489258e-02</internalNodes>
          <leafValues>
            -6.3942307233810425e-01 7.0664209127426147e-01</leafValues></_>
        <_>
          <internalNodes>
            0 -1 187 9.9872844293713570e-03</internalNodes>
          <leafValues>
            -6.6393142938613892e-01 4.3974289298057556e-01</leafValues></_>
        <_>
          <internalNodes>
            0 -1 169 -2.3104652762413025e-02</internalNodes>
          <leafValues>
            3.9037549495697021e-01 -7.0194292068481445e-01</leafValues></_>
        <_>
          <internalNodes>
            0 -1 119 5.0714984536170959e-03</internalNodes>
          <leafValues>
            -3.4935086965560913e-01 6.2550854682922363e-01</leafValues></_>
        <_>
          <internalNodes>
            0 -1 256 2.6242621243000031e-03</internalNodes>
          <leafValues>
            -2.9851722717285156e-01 7.1506983041763306e-01</leafValues></_>
        <_>
          <internalNodes>
            0 -1 237 8.0697774887084961e-02</internalNodes>
          <leafValues>
            -2.0848515629768372e-01 8.0565553903579712e-01</leafValues></_>
        <_>
          <internalNodes>
            0 -1 14 9.4341546297073364e-02</internalNodes>
          <leafValues>
            -2.8994619846343994e-01 6.1708068847656250e-01</leafValues></_>
        <_>
          <internalNodes>
            0 -1 98 -4.6148344874382019e-02</internalNodes>
          <leafValues>
            -8.5458523035049438e-01 1.7948214709758759e-01</leafValues></_></weakClassifiers></_>
    <!-- stage 3 -->
    <_>
      <maxWeakCount>7</maxWeakCount>
      <stageThreshold>-1.0738646984100342e+00</stageThreshold>
      <weakClassifiers>
        <_>
          <internalNodes>
            0 -1 66 3.9371922612190247e-02</internalNodes>
          <leafValues>
            -7.3066663742065430e-01 6.8800002336502075e-01</leafValues></_>
        <_>
          <internalNodes>
            0 -1 244 -3.0933780362829566e-04</internalNodes>
          <leafValues>
            5.8044195175170898e-01 -3.9068642258644104e-01</leafValues></_>
        <_>
          <internalNodes>
            0 -1 266 7.0691956207156181e-03</internalNodes>
          <leafValues>
            -2.6426905393600464e-01 8.0503958463668823e-01</leafValues></_>
        <_>
          <internalNodes>
            0 -1 124 -2.7588421944528818e-03</internalNodes>
          <leafValues>
            3.2699748873710632e-01 -7.3760980367660522e-01</leafValues></_>
        <_>
          <internalNodes>
            0 -1 158 -3.7131034769117832e-03</internalNodes>
          <leafValues>
            7.9721707105636597e-01 -3.2060927152633667e-01</leafValues></_>
        <_>
          <internalNodes>
            0 -1 8 -5.0781477242708206e-02</internalNodes>
          <leafValues>
            8.8241124153137207e-01 -1.3854852318763733e-01</leafValues></_>
        <_>
          <internalNodes>
            0 -1 108 2.1228075027465820e-02</internalNodes>
          <leafValues>
            -4.3126752972602844e-01 4.4391772150993347e-01</leafValues></_></weakClassifiers></_>
    <!-- stage 4 -->
    <_>
      <maxWeakCount>11</maxWeakCount>
      <stageThreshold>-1.3483945131301880e+00</stageThreshold>
      <weakClassifiers>
        <_>
          <internalNodes>
            0 -1 116 -1.7855826765298843e-02</internalNodes>
          <leafValues>
            5.3852295875549316e-01 -7.0505052804946899e-01</leafValues></_>
        <_>
          <internalNodes>
            0 -1 153 2.3260912857949734e-03</internalNodes>
          <leafValues>
            -2.7942755818367004e-01 7.5825113058090210e-01</leafValues></_>
        <_>
          <internalNodes>
            0 -1 174 8.2178376615047455e-03</internalNodes>
          <leafValues>
            -4.6960201859474182e-01 4.3166840076446533e-01</leafValues></_>
        <_>
          <internalNodes>
            0 -1 264 -7.2534801438450813e-03</internalNodes>
          <leafValues>
            5.8843433856964111e-01 -2.5284048914909363e-01</leafValues></_>
        <_>
          <internalNodes>
            0 -1 127 4.5507578179240227e-03</internalNodes>
          <leafValues>
            -3.2753285765647888e-01 6.0600298643112183e-01</leafValues></_>
        <_>
          <internalNodes>
            0 -1 20 -2.3261713981628418e-01</internalNodes>
          <leafValues>
            8.9515411853790283e-01 -1.3412372767925262e-01</leafValues></_>
        <_>
          <internalNodes>
            0 -1 106 3.0535133555531502e-03</internalNodes>
          <leafValues>
            -6.5206295251846313e-01 2.6958408951759338e-01</leafValues></_>
        <_>
          <internalNodes>
            0 -1 68 3.1681835651397705e-02</internalNodes>
          <leafValues>
            -6.1063235998153687e-01 2.1310679614543915e-01</leafValues></_>
        <_>
          <internalNodes>
            0 -1 43 1.2885859236121178e-02</internalNodes>
          <leafValues>
            1.6545945405960083e-01 -7.6322031021118164e-01</leafValues></_>
        <_>
          <internalNodes>
            0 -1 153 -2.0219213329255581e-03</internalNodes>
          <leafValues>
            6.8591660261154175e-01 -2.0751270651817322e-01</leafValues></_>
        <_>
          <internalNodes>
            0 -1 30 2.5933757424354553e-02</internalNodes>
          <leafValues>
            -1.4792008697986603e-01 6.1296278238296509e-01</leafValues></_></weakClassifiers></_>
    <!-- stage 5 -->
    <_>
      <maxWeakCount>11</maxWeakCount>
      <stageThreshold>-7.9590344429016113e-01</stageThreshold>
      <weakClassifiers>
        <_>
          <internalNodes>
            0 -1 102 1.3108439743518829e-02</internalNodes>
          <leafValues>
            -5.1462996006011963e-01 5.3699874877929688e-01</leafValues></_>
        <_>
          <internalNodes>
            0 -1 203 7.4210632592439651e-03</internalNodes>
          <leafValues>
            -2.9064950346946716e-01 5.9340584278106689e-01</leafValues></_>
        <_>
          <internalNodes>
            0 -1 221 -1.4348024502396584e-02</internalNodes>
          <leafValues>
            2.7095189690589905e-01 -6.6595709323883057e-01</leafValues></_>
        <_>
          <internalNodes>
            0 -1 211 1.0151320695877075e-01</internalNodes>
          <leafValues>
            -2.2065992653369904e-01 7.2118407487869263e-01</leafValues></_>
        <_>
          <internalNodes>
            0 -1 23 2.7872550487518311e-01</internalNodes>
          <leafValues>
            -2.7035054564476013e-01 6.2779831886291504e-01</leafValues></_>
        <_>
          <internalNodes>
            0 -1 113 6.9140759296715260e-04</internalNodes>
          <leafValues>
            -6.3712739944458008e-01 2.7367329597473145e-01</leafValues></_>
        <_>
          <internalNodes>
            0 -1 256 3.0762548558413982e-03</internalNodes>
          <leafValues>
            -2.6948681473731995e-01 5.7815182209014893e-01</leafValues></_>
        <_>
          <internalNodes>
            0 -1 105 5.3396588191390038e-03</internalNodes>
          <leafValues>
            -1.8945014476776123e-01 5.8057880401611328e-01</leafValues></_>
        <_>
          <internalNodes>
            0 -1 67 1.9377410411834717e-02</internalNodes>
          <leafValues>
            1.7644399404525757e-01 -7.0875251293182373e-01</leafValues></_>
        <_>
          <internalNodes>
            0 -1 245 3.1399279832839966e-03</internalNodes>
          <leafValues>
            -2.2935250401496887e-01 5.9585291147232056e-01</leafValues></_>
        <_>
          <internalNodes>
            0 -1 29 -7.2776377201080322e-02</internalNodes>
          <leafValues>
            4.6760678291320801e-01 -2.5817543268203735e-01</leafValues></_></weakClassifiers></_>
    <!-- stage 6 -->
    <_>
      <maxWeakCount>13</maxWeakCount>
      <stageThreshold>-9.4254398345947266e-01</stageThreshold>
      <weakClassifiers>
        <_>
          <internalNodes>
            0 -1 216 3.8236903492361307e-03</internalNodes>
          <leafValues>
            -9.6140347421169281e-02 7.2190475463867188e-01</leafValues></_>
        <_>
          <internalNodes>
            0 -1 229 -1.7423059791326523e-02</internalNodes>
          <leafValues>
            3.6690658330917358e-01 -5.1479846239089966e-01</leafValues></_>
        <_>
          <internalNodes>
            0 -1 170 2.7100590523332357e-03</internalNodes>
          <leafValues>
            -2.4727047979831696e-01 5.7245171070098877e-01</leafValues></_>
        <_>
          <internalNodes>
            0 -1 127 7.6525527983903885e-03</internalNodes>
          <leafValues>
            -2.0886591076850891e-01 6.1497074365615845e-01</leafValues></_>
        <_>
          <internalNodes>
            0 -1 88 1.1317624151706696e-01</internalNodes>
          <leafValues>
            -1.7906716465950012e-01 7.2264873981475830e-01</leafValues></_>
        <_>
          <internalNodes>
            0 -1 212 4.8144469037652016e-03</internalNodes>
          <leafValues>
            -7.6648175716400146e-01 1.5482987463474274e-01</leafValues></_>
        <_>
          <internalNodes>
            0 -1 123 2.6517964433878660e-03</internalNodes>
          <leafValues>
            1.5841527283191681e-01 -7.4784487485885620e-01</leafValues></_>
        <_>
          <internalNodes>
            0 -1 200 -1.7150109633803368e-03</internalNodes>
          <leafValues>
            1.5180180966854095e-01 -7.6356238126754761e-01</leafValues></_>
        <_>
          <internalNodes>
            0 -1 259 -6.8912288406863809e-04</internalNodes>
          <leafValues>
            3.6716669797897339e-01 -3.0462434887886047e-01</leafValues></_>
        <_>
          <internalNodes>
            0 -1 62 2.6153181679546833e-03</internalNodes>
          <leafValues>
            -6.4278608560562134e-01 1.7240101099014282e-01</leafValues></_>
        <_>
          <internalNodes>
            0 -1 45 -2.4078968912363052e-02</internalNodes>
          <leafValues>
            -9.3454092741012573e-01 1.0521747916936874e-01</leafValues></_>
        <_>
          <internalNodes>
            0 -1 236 1.1324940249323845e-02</internalNodes>
          <leafValues>
            1.1787728220224380e-01 -7.5000971555709839e-01</leafValues></_>
        <_>
          <internalNodes>
            0 -1 1 -2.4431465566158295e-01</internalNodes>
          <leafValues>
            7.7170479297637939e-01 -1.8371444940567017e-01</leafValues></_></weakClassifiers></_>
    <!-- stage 7 -->
    <_>
      <maxWeakCount>16</maxWeakCount>
      <stageThreshold>-8.8194090127944946e-01</stageThreshold>
      <weakClassifiers>
        <_>
          <internalNodes>
            0 -1 154 6.5708458423614502e-03</internalNodes>
          <leafValues>
            -4.9324324727058411e-01 5.3654485940933228e-01</leafValues></_>
        <_>
          <internalNodes>
            0 -1 153 2.4892366491258144e-03</internalNodes>
          <leafValues>
            -2.2241678833961487e-01 5.3841722011566162e-01</leafValues></_>
        <_>
          <internalNodes>
            0 -1 125 -2.1825961768627167e-02</internalNodes>
          <leafValues>
            -6.9593411684036255e-01 1.7418037354946136e-01</leafValues></_>
        <_>
          <internalNodes>
            0 -1 25 -1.2787455320358276e-01</internalNodes>
          <leafValues>
            7.5463694334030151e-01 -1.4644370973110199e-01</leafValues></_>
        <_>
          <internalNodes>
            0 -1 242 -4.2374208569526672e-03</internalNodes>
          <leafValues>
            5.6220006942749023e-01 -2.1675904095172882e-01</leafValues></_>
        <_>
          <internalNodes>
            0 -1 24 1.2542057037353516e-01</internalNodes>
          <leafValues>
            -1.6492906212806702e-01 6.4859998226165771e-01</leafValues></_>
        <_>
          <internalNodes>
            0 -1 56 -1.1533379554748535e-02</internalNodes>
          <leafValues>
            -7.7868050336837769e-01 1.2467572838068008e-01</leafValues></_>
        <_>
          <internalNodes>
            0 -1 217 3.2833386212587357e-03</internalNodes>
          <leafValues>
            -1.9707930088043213e-01 4.8742470145225525e-01</leafValues></_>
        <_>
          <internalNodes>
            0 -1 91 -8.6595579981803894e-02</internalNodes>
          <leafValues>
            5.9506112337112427e-01 -1.5301944315433502e-01</leafValues></_>
        <_>
          <internalNodes>
            0 -1 148 1.0162532329559326e-02</internalNodes>
          <leafValues>
            -4.8161980509757996e-01 2.2463175654411316e-01</leafValues></_>
        <_>
          <internalNodes>
            0 -1 201 -1.7320530023425817e-03</internalNodes>
          <leafValues>
            1.3720287382602692e-01 -6.3835740089416504e-01</leafValues></_>
        <_>
          <internalNodes>
            0 -1 145 -1.9912216812372208e-02</internalNodes>
          <leafValues>
            -6.3987278938293457e-01 1.3302581012248993e-01</leafValues></_>
        <_>
          <internalNodes>
            0 -1 151 -1.5781842172145844e-02</internalNodes>
          <leafValues>
            -7.1652632951736450e-01 1.0772895067930222e-01</leafValues></_>
        <_>
          <internalNodes>
            0 -1 132 5.4182521998882294e-03</internalNodes>
          <leafValues>
            -1.9890569150447845e-01 5.1585561037063599e-01</leafValues></_>
        <_>
          <internalNodes>
            0 -1 159 5.6568775326013565e-03</internalNodes>
          <leafValues>
            -4.3873503804206848e-01 2.2113406658172607e-01</leafValues></_>
        <_>
          <internalNodes>
            0 -1 257 5.6056622415781021e-03</internalNodes>
          <leafValues>
            -1.8478393554687500e-01 4.4814494252204895e-01</leafValues></_></weakClassifiers></_>
    <!-- stage 8 -->
    <_>
      <maxWeakCount>18</maxWeakCount>
      <stageThreshold>-9.4365674257278442e-01</stageThreshold>
      <weakClassifiers>
        <_>
          <internalNodes>
            0 -1 106 2.9144452419131994e-03</internalNodes>
          <leafValues>
            -6.0500001907348633e-01 4.7769230604171753e-01</leafValues></_>
        <_>
          <internalNodes>
            0 -1 107 -2.1420525445137173e-04</internalNodes>
          <leafValues>
            2.3784837126731873e-01 -6.9370353221893311e-01</leafValues></_>
        <_>
          <internalNodes>
            0 -1 226 -8.4773532580584288e-04</internalNodes>
          <leafValues>
            3.2691034674644470e-01 -4.2607071995735168e-01</leafValues></_>
        <_>
          <internalNodes>
            0 -1 180 -4.1018992662429810e-02</internalNodes>
          <leafValues>
            6.0386329889297485e-01 -1.6883414983749390e-01</leafValues></_>
        <_>
          <internalNodes>
            0 -1 93 6.1923496425151825e-02</internalNodes>
          <leafValues>
            -2.5230231881141663e-01 4.9577784538269043e-01</leafValues></_>
        <_>
          <internalNodes>
            0 -1 82 -2.1097015589475632e-02</internalNodes>
          <leafValues>
            -7.8081393241882324e-01 1.4767776429653168e-01</leafValues></_>
        <_>
          <internalNodes>
            0 -1 46 5.0643449649214745e-03</internalNodes>
          <leafValues>
            -1.8295484781265259e-01 5.9876364469528198e-01</leafValues></_>
        <_>
          <internalNodes>
            0 -1 84 4.9734646454453468e-03</internalNodes>
          <leafValues>
            -1.3275556266307831e-01 5.9036487340927124e-01</leafValues></_>
        <_>
          <internalNodes>
            0 -1 89 7.0729508996009827e-02</internalNodes>
          <leafValues>
            -1.4467711746692657e-01 5.8928132057189941e-01</leafValues></_>
        <_>
          <internalNodes>
            0 -1 168 6.1669200658798218e-04</internalNodes>
          <leafValues>
            1.0766147077083588e-01 -7.7610969543457031e-01</leafValues></_>
        <_>
          <internalNodes>
            0 -1 37 -3.6288734525442123e-02</internalNodes>
          <leafValues>
            -6.8055206537246704e-01 9.1157145798206329e-02</leafValues></_>
        <_>
          <internalNodes>
            0 -1 117 2.5196776259690523e-03</internalNodes>
          <leafValues>
            -2.0502401888370514e-01 3.8662350177764893e-01</leafValues></_>
        <_>
          <internalNodes>
            0 -1 190 -1.5298770740628242e-03</internalNodes>
          <leafValues>
            4.6574914455413818e-01 -1.7676353454589844e-01</leafValues></_>
        <_>
          <internalNodes>
            0 -1 252 -2.9210507869720459e-02</internalNodes>
          <leafValues>
            3.3303758502006531e-01 -2.2754208743572235e-01</leafValues></_>
        <_>
          <internalNodes>
            0 -1 11 -1.5394887328147888e-01</internalNodes>
          <leafValues>
            7.2674381732940674e-01 -1.1794364452362061e-01</leafValues></_>
        <_>
          <internalNodes>
            0 -1 134 -8.0388188362121582e-02</internalNodes>
          <leafValues>
            5.3437417745590210e-01 -1.3455480337142944e-01</leafValues></_>
        <_>
          <internalNodes>
            0 -1 149 -4.6734437346458435e-03</internalNodes>
          <leafValues>
            4.3175625801086426e-01 -1.6480316221714020e-01</leafValues></_>
        <_>
          <internalNodes>
            0 -1 186 1.5395853668451309e-02</internalNodes>
          <leafValues>
            -5.2996355295181274e-01 1.7948007583618164e-01</leafValues></_></weakClassifiers></_>
    <!-- stage 9 -->
    <_>
      <maxWeakCount>20</maxWeakCount>
      <stageThreshold>-8.9001661539077759e-01</stageThreshold>
      <weakClassifiers>
        <_>
          <internalNodes>
            0 -1 153 2.6007560081779957e-03</internalNodes>
          <leafValues>
            6.1564058065414429e-02 7.4269008636474609e-01</leafValues></_>
        <_>
          <internalNodes>
            0 -1 240 1.1353847803547978e-03</internalNodes>
          <leafValues>
            -1.8304567039012909e-01 5.1474821567535400e-01</leafValues></_>
        <_>
          <internalNodes>
            0 -1 250 1.1374625563621521e-01</internalNodes>
          <leafValues>
            -1.2880992889404297e-01 7.1842408180236816e-01</leafValues></_>
        <_>
          <internalNodes>
            0 -1 207 -5.0478184130042791e-04</internalNodes>
          <leafValues>
            2.5288033485412598e-01 -3.9387419819831848e-01</leafValues></_>
        <_>
          <internalNodes>
            0 -1 215 3.5453384043648839e-04</internalNodes>
          <leafValues>
            -3.9987200498580933e-01 2.3761998116970062e-01</leafValues></_>
        <_>
          <internalNodes>
            0 -1 133 -2.9534632340073586e-03</internalNodes>
          <leafValues>
            4.8363968729972839e-01 -1.9109305739402771e-01</leafValues></_>
        <_>
          <internalNodes>
            0 -1 57 2.8956469148397446e-02</internalNodes>
          <leafValues>
            -7.3098659515380859e-01 1.4266338944435120e-01</leafValues></_>
        <_>
          <internalNodes>
            0 -1 157 2.4940115399658680e-03</internalNodes>
          <leafValues>
            -1.4831250905990601e-01 5.8396923542022705e-01</leafValues></_>
        <_>
          <internalNodes>
            0 -1 157 -1.7268229275941849e-03</internalNodes>
          <leafValues>
            4.1933888196945190e-01 -2.0940026640892029e-01</leafValues></_>
        <_>
          <internalNodes>
            0 -1 71 1.5356235206127167e-02</internalNodes>
          <leafValues>
            1.2338555604219437e-01 -8.0486875772476196e-01</leafValues></_>
        <_>
          <internalNodes>
            0 -1 18 -1.2675945460796356e-01</internalNodes>
          <leafValues>
            6.7904633283615112e-01 -1.3520567119121552e-01</leafValues></_>
        <_>
          <internalNodes>
            0 -1 80 -9.6908718114718795e-04</internalNodes>
          <leafValues>
            1.9893746078014374e-01 -5.0325399637222290e-01</leafValues></_>
        <_>
          <internalNodes>
            0 -1 100 1.3438166351988912e-03</internalNodes>
          <leafValues>
            -6.1786156892776489e-01 1.2137763202190399e-01</leafValues></_>
        <_>
          <internalNodes>
            0 -1 231 6.4314445480704308e-03</internalNodes>
          <leafValues>
            -1.8503075838088989e-01 4.6877676248550415e-01</leafValues></_>
        <_>
          <internalNodes>
            0 -1 231 -1.0242436081171036e-02</internalNodes>
          <leafValues>
            6.5061753988265991e-01 -1.3397958874702454e-01</leafValues></_>
        <_>
          <internalNodes>
            0 -1 3 2.2766822576522827e-01</internalNodes>
          <leafValues>
            -1.1850859969854355e-01 5.5556464195251465e-01</leafValues></_>
        <_>
          <internalNodes>
            0 -1 4 -1.8472906947135925e-01</internalNodes>
          <leafValues>
            8.1955730915069580e-01 -8.4131203591823578e-02</leafValues></_>
        <_>
          <internalNodes>
            0 -1 254 7.5269220396876335e-03</internalNodes>
          <leafValues>
            -1.6258651018142700e-01 4.0317535400390625e-01</leafValues></_>
        <_>
          <internalNodes>
            0 -1 111 3.6998393479734659e-03</internalNodes>
          <leafValues>
            -2.3690436780452728e-01 3.1580081582069397e-01</leafValues></_>
        <_>
          <internalNodes>
            0 -1 42 6.1410935595631599e-03</internalNodes>
          <leafValues>
            1.3369984924793243e-01 -5.9963566064834595e-01</leafValues></_></weakClassifiers></_>
    <!-- stage 10 -->
    <_>
      <maxWeakCount>23</maxWeakCount>
      <stageThreshold>-9.7291427850723267e-01</stageThreshold>
      <weakClassifiers>
        <_>
          <internalNodes>
            0 -1 173 6.5185371786355972e-03</internalNodes>
          <leafValues>
            -2.2878229618072510e-02 6.2674772739410400e-01</leafValues></_>
        <_>
          <internalNodes>
            0 -1 239 3.0903769657015800e-03</internalNodes>
          <leafValues>
            -2.0287612080574036e-01 4.2766392230987549e-01</leafValues></_>
        <_>
          <internalNodes>
            0 -1 219 6.8272612988948822e-03</internalNodes>
          <leafValues>
            -1.6543695330619812e-01 5.4961979389190674e-01</leafValues></_>
        <_>
          <internalNodes>
            0 -1 208 1.3574612140655518e-01</internalNodes>
          <leafValues>
            -1.5865534543991089e-01 6.7696845531463623e-01</leafValues></_>
        <_>
          <internalNodes>
            0 -1 228 -9.4709778204560280e-03</internalNodes>
          <leafValues>
            1.7014765739440918e-01 -4.9842518568038940e-01</leafValues></_>
        <_>
          <internalNodes>
            0 -1 112 -3.0109814833849669e-03</internalNodes>
          <leafValues>
            -7.1604102849960327e-01 1.0707788169384003e-01</leafValues></_>
        <_>
          <internalNodes>
            0 -1 83 1.1130876839160919e-02</internalNodes>
          <leafValues>
            8.4616862237453461e-02 -8.2083779573440552e-01</leafValues></_>
        <_>
          <internalNodes>
            0 -1 59 -2.5110039860010147e-03</internalNodes>
          <leafValues>
            4.6268570423126221e-01 -1.7680035531520844e-01</leafValues></_>
        <_>
          <internalNodes>
            0 -1 127 -7.7006202191114426e-03</internalNodes>
          <leafValues>
            5.6603235006332397e-01 -1.2089399248361588e-01</leafValues></_>
        <_>
          <internalNodes>
            0 -1 55 -1.3944479636847973e-02</internalNodes>
          <leafValues>
            -6.3233470916748047e-01 1.3852824270725250e-01</leafValues></_>
        <_>
          <internalNodes>
            0 -1 94 5.3577341139316559e-02</internalNodes>
          <leafValues>
            1.0010612010955811e-01 -6.1481499671936035e-01</leafValues></_>
        <_>
          <internalNodes>
            0 -1 218 -1.7471029423177242e-03</internalNodes>
          <leafValues>
            3.6391890048980713e-01 -1.8316890299320221e-01</leafValues></_>
        <_>
          <internalNodes>
            0 -1 26 -8.6258426308631897e-02</internalNodes>
          <leafValues>
            5.5938476324081421e-01 -1.2593637406826019e-01</leafValues></_>
        <_>
          <internalNodes>
            0 -1 209 2.6714360501500778e-05</internalNodes>
          <leafValues>
            -3.3712255954742432e-01 2.4224780499935150e-01</leafValues></_>
        <_>
          <internalNodes>
            0 -1 235 3.9780605584383011e-03</internalNodes>
          <leafValues>
            -1.3250052928924561e-01 5.3727185726165771e-01</leafValues></_>
        <_>
          <internalNodes>
            0 -1 152 1.1570058995857835e-04</internalNodes>
          <leafValues>
            -6.6610813140869141e-01 1.1490567773580551e-01</leafValues></_>
        <_>
          <internalNodes>
            0 -1 39 2.0683293696492910e-03</internalNodes>
          <leafValues>
            -1.5978378057479858e-01 4.3899822235107422e-01</leafValues></_>
        <_>
          <internalNodes>
            0 -1 136 9.6166968345642090e-02</internalNodes>
          <leafValues>
            -1.2157037854194641e-01 5.7879525423049927e-01</leafValues></_>
        <_>
          <internalNodes>
            0 -1 261 -6.1071667820215225e-02</internalNodes>
          <leafValues>
            5.7845932245254517e-01 -1.0711571574211121e-01</leafValues></_>
        <_>
          <internalNodes>
            0 -1 245 3.2366458326578140e-03</internalNodes>
          <leafValues>
            -1.4686901867389679e-01 4.2182046175003052e-01</leafValues></_>
        <_>
          <internalNodes>
            0 -1 44 -1.8450774252414703e-02</internalNodes>
          <leafValues>
            -6.3783377408981323e-01 1.0557995736598969e-01</leafValues></_>
        <_>
          <internalNodes>
            0 -1 233 1.8574965652078390e-03</internalNodes>
          <leafValues>
            1.1258716881275177e-01 -4.8951837420463562e-01</leafValues></_>
        <_>
          <internalNodes>
            0 -1 63 8.3244834095239639e-03</internalNodes>
          <leafValues>
            6.9646529853343964e-02 -7.6626592874526978e-01</leafValues></_></weakClassifiers></_>
    <!-- stage 11 -->
    <_>
      <maxWeakCount>24</maxWeakCount>
      <stageThreshold>-9.8274481296539307e-01</stageThreshold>
      <weakClassifiers>
        <_>
          <internalNodes>
            0 -1 222 2.2709621116518974e-03</internalNodes>
          <leafValues>
            -2.5133281946182251e-02 6.1232960224151611e-01</leafValues></_>
        <_>
          <internalNodes>
            0 -1 99 -1.1909692548215389e-03</internalNodes>
          <leafValues>
            4.8680487275123596e-01 -1.6148900985717773e-01</leafValues></_>
        <_>
          <internalNodes>
            0 -1 174 6.7862495779991150e-03</internalNodes>
          <leafValues>
            -4.5612490177154541e-01 2.0894891023635864e-01</leafValues></_>
        <_>
          <internalNodes>
            0 -1 172 -6.0970131307840347e-03</internalNodes>
          <leafValues>
            1.3604815304279327e-01 -6.4417541027069092e-01</leafValues></_>
        <_>
          <internalNodes>
            0 -1 213 3.2609686255455017e-02</internalNodes>
          <leafValues>
            -1.4390963315963745e-01 5.9857702255249023e-01</leafValues></_>
        <_>
          <internalNodes>
            0 -1 249 -2.1292496472597122e-02</internalNodes>
          <leafValues>
            2.4587039649486542e-01 -3.4104496240615845e-01</leafValues></_>
        <_>
          <internalNodes>
            0 -1 214 2.2606251295655966e-03</internalNodes>
          <leafValues>
            -2.2167749702930450e-01 2.9679673910140991e-01</leafValues></_>
        <_>
          <internalNodes>
            0 -1 238 8.7494514882564545e-02</internalNodes>
          <leafValues>
            5.7481985539197922e-02 -7.8598755598068237e-01</leafValues></_>
        <_>
          <internalNodes>
            0 -1 220 5.8286990970373154e-03</internalNodes>
          <leafValues>
            -1.5803679823875427e-01 4.5615878701210022e-01</leafValues></_>
        <_>
          <internalNodes>
            0 -1 122 2.9816448222845793e-03</internalNodes>
          <leafValues>
            1.1876261234283447e-01 -6.6035091876983643e-01</leafValues></_>
        <_>
          <internalNodes>
            0 -1 205 4.8651851713657379e-02</internalNodes>
          <leafValues>
            -1.3463425636291504e-01 5.4475313425064087e-01</leafValues></_>
        <_>
          <internalNodes>
            0 -1 40 8.5332952439785004e-03</internalNodes>
          <leafValues>
            -1.8344770371913910e-01 5.0265097618103027e-01</leafValues></_>
        <_>
          <internalNodes>
            0 -1 106 4.6296799555420876e-03</internalNodes>
          <leafValues>
            -4.9140691757202148e-01 1.4420261979103088e-01</leafValues></_>
        <_>
          <internalNodes>
            0 -1 142 -4.5899245887994766e-02</internalNodes>
          <leafValues>
            -9.3685275316238403e-01 5.3120762109756470e-02</leafValues></_>
        <_>
          <internalNodes>
            0 -1 150 2.6039329823106527e-03</internalNodes>
          <leafValues>
            1.1175426840782166e-01 -5.4432946443557739e-01</leafValues></_>
        <_>
          <internalNodes>
            0 -1 165 3.4997998736798763e-03</internalNodes>
          <leafValues>
            -1.8050618469715118e-01 3.8231042027473450e-01</leafValues></_>
        <_>
          <internalNodes>
            0 -1 119 -6.5458435565233231e-03</internalNodes>
          <leafValues>
            5.8565407991409302e-01 -1.4744548499584198e-01</leafValues></_>
        <_>
          <internalNodes>
            0 -1 41 -2.1705787628889084e-02</internalNodes>
          <leafValues>
            -7.9237431287765503e-01 9.6186816692352295e-02</leafValues></_>
        <_>
          <internalNodes>
            0 -1 5 -8.7461456656455994e-02</internalNodes>
          <leafValues>
            5.2180618047714233e-01 -1.3479512929916382e-01</leafValues></_>
        <_>
          <internalNodes>
            0 -1 33 -1.7994651198387146e-01</internalNodes>
          <leafValues>
            5.9239101409912109e-01 -1.0991863906383514e-01</leafValues></_>
        <_>
          <internalNodes>
            0 -1 83 8.4355380386114120e-03</internalNodes>
          <leafValues>
            9.8975069820880890e-02 -6.8774163722991943e-01</leafValues></_>
        <_>
          <internalNodes>
            0 -1 176 -2.2867874940857291e-04</internalNodes>
          <leafValues>
            2.2713346779346466e-01 -2.5445333123207092e-01</leafValues></_>
        <_>
          <internalNodes>
            0 -1 227 -3.1467215158045292e-03</internalNodes>
          <leafValues>
            8.4449134767055511e-02 -7.7998602390289307e-01</leafValues></_>
        <_>
          <internalNodes>
            0 -1 223 9.9352828692644835e-04</internalNodes>
          <leafValues>
            -1.7467668652534485e-01 3.5236003994941711e-01</leafValues></_></weakClassifiers></_>
    <!-- stage 12 -->
    <_>
      <maxWeakCount>23</maxWeakCount>
      <stageThreshold>-9.4414949417114258e-01</stageThreshold>
      <weakClassifiers>
        <_>
          <internalNodes>
            0 -1 243 4.3427513446658850e-05</internalNodes>
          <leafValues>
            -6.8754772655665874e-03 5.9668833017349243e-01</leafValues></_>
        <_>
          <internalNodes>
            0 -1 153 3.1753983348608017e-03</internalNodes>
          <leafValues>
            -1.5584832429885864e-01 4.9641650915145874e-01</leafValues></_>
        <_>
          <internalNodes>
            0 -1 204 5.4578424897044897e-04</internalNodes>
          <leafValues>
            -3.6362269520759583e-01 2.1968965232372284e-01</leafValues></_>
        <_>
          <internalNodes>
            0 -1 35 -1.6944313049316406e-01</internalNodes>
          <leafValues>
            6.8170237541198730e-01 -1.1367834359407425e-01</leafValues></_>
        <_>
          <internalNodes>
            0 -1 163 -4.6523334458470345e-04</internalNodes>
          <leafValues>
            2.9452577233314514e-01 -2.5289025902748108e-01</leafValues></_>
        <_>
          <internalNodes>
            0 -1 85 8.4593571955338120e-04</internalNodes>
          <leafValues>
            -6.1846810579299927e-01 1.5041990578174591e-01</leafValues></_>
        <_>
          <internalNodes>
            0 -1 230 5.4849464504513890e-05</internalNodes>
          <leafValues>
            -2.1829940378665924e-01 3.7260946631431580e-01</leafValues></_>
        <_>
          <internalNodes>
            0 -1 253 2.0999680273234844e-03</internalNodes>
          <leafValues>
            -4.1247195005416870e-01 1.8441827595233917e-01</leafValues></_>
        <_>
          <internalNodes>
            0 -1 49 3.7423308938741684e-02</internalNodes>
          <leafValues>
            7.6144687831401825e-02 -7.6166933774948120e-01</leafValues></_>
        <_>
          <internalNodes>
            0 -1 128 -3.9709731936454773e-03</internalNodes>
          <leafValues>
            -6.7730420827865601e-01 7.4632778763771057e-02</leafValues></_>
        <_>
          <internalNodes>
            0 -1 210 -8.2982366438955069e-04</internalNodes>
          <leafValues>
            2.8022840619087219e-01 -2.1523152291774750e-01</leafValues></_>
        <_>
          <internalNodes>
            0 -1 197 5.8376262895762920e-03</internalNodes>
          <leafValues>
            -1.6000187397003174e-01 4.2947271466255188e-01</leafValues></_>
        <_>
          <internalNodes>
            0 -1 72 -4.7995621571317315e-05</internalNodes>
          <leafValues>
            1.5947854518890381e-01 -4.0942633152008057e-01</leafValues></_>
        <_>
          <internalNodes>
            0 -1 17 -1.1532659828662872e-01</internalNodes>
          <leafValues>
            6.1833608150482178e-01 -1.1299636214971542e-01</leafValues></_>
        <_>
          <internalNodes>
            0 -1 27 2.4454612284898758e-02</internalNodes>
          <leafValues>
            -1.3885201513767242e-01 5.2734512090682983e-01</leafValues></_>
        <_>
          <internalNodes>
            0 -1 64 2.7290016412734985e-02</internalNodes>
          <leafValues>
            -4.7390511631965637e-01 1.4749422669410706e-01</leafValues></_>
        <_>
          <internalNodes>
            0 -1 185 -1.0374831967055798e-02</internalNodes>
          <leafValues>
            -4.1085943579673767e-01 1.6622376441955566e-01</leafValues></_>
        <_>
          <internalNodes>
            0 -1 232 4.8155523836612701e-03</internalNodes>
          <leafValues>
            -1.1768639087677002e-01 5.8070588111877441e-01</leafValues></_>
        <_>
          <internalNodes>
            0 -1 131 2.4767438881099224e-03</internalNodes>
          <leafValues>
            -1.9535534083843231e-01 3.2215046882629395e-01</leafValues></_>
        <_>
          <internalNodes>
            0 -1 77 5.8386037126183510e-03</internalNodes>
          <leafValues>
            -1.3064657151699066e-01 5.5649501085281372e-01</leafValues></_>
        <_>
          <internalNodes>
            0 -1 198 -2.1140571683645248e-02</internalNodes>
          <leafValues>
            -5.7242327928543091e-01 1.4151172339916229e-01</leafValues></_>
        <_>
          <internalNodes>
            0 -1 115 3.7568282335996628e-02</internalNodes>
          <leafValues>
            6.6787436604499817e-02 -6.9958251714706421e-01</leafValues></_>
        <_>
          <internalNodes>
            0 -1 104 1.2384052388370037e-03</internalNodes>
          <leafValues>
            -1.9338533282279968e-01 3.1614431738853455e-01</leafValues></_></weakClassifiers></_>
    <!-- stage 13 -->
    <_>
      <maxWeakCount>23</maxWeakCount>
      <stageThreshold>-8.0305796861648560e-01</stageThreshold>
      <weakClassifiers>
        <_>
          <internalNodes>
            0 -1 187 1.1961642652750015e-02</internalNodes>
          <leafValues>
            -4.0149626135826111e-01 4.4671025872230530e-01</leafValues></_>
        <_>
          <internalNodes>
            0 -1 164 6.1057098209857941e-03</internalNodes>
          <leafValues>
            -1.8290095031261444e-01 4.5325794816017151e-01</leafValues></_>
        <_>
          <internalNodes>
            0 -1 51 -8.1249698996543884e-02</internalNodes>
          <leafValues>
            6.6254067420959473e-01 -1.2093374878168106e-01</leafValues></_>
        <_>
          <internalNodes>
            0 -1 234 -1.0487283580005169e-03</internalNodes>
          <leafValues>
            1.8090823292732239e-01 -4.7391989827156067e-01</leafValues></_>
        <_>
          <internalNodes>
            0 -1 126 2.8225551359355450e-03</internalNodes>
          <leafValues>
            -2.4985952675342560e-01 3.5507956147193909e-01</leafValues></_>
        <_>
          <internalNodes>
            0 -1 255 -6.8147843703627586e-03</internalNodes>
          <leafValues>
            -6.4037317037582397e-01 9.4201073050498962e-02</leafValues></_>
        <_>
          <internalNodes>
            0 -1 22 2.6256414130330086e-03</internalNodes>
          <leafValues>
            1.2107068300247192e-01 -5.0735026597976685e-01</leafValues></_>
        <_>
          <internalNodes>
            0 -1 265 1.4418384991586208e-02</internalNodes>
          <leafValues>
            7.3933042585849762e-02 -6.8497073650360107e-01</leafValues></_>
        <_>
          <internalNodes>
            0 -1 225 4.6697538346052170e-03</internalNodes>
          <leafValues>
            -1.4750260114669800e-01 4.6952643990516663e-01</leafValues></_>
        <_>
          <internalNodes>
            0 -1 182 -4.4161262921988964e-03</internalNodes>
          <leafValues>
            -6.0617399215698242e-01 1.2505002319812775e-01</leafValues></_>
        <_>
          <internalNodes>
            0 -1 181 8.8933203369379044e-03</internalNodes>
          <leafValues>
            8.0140195786952972e-02 -7.7150624990463257e-01</leafValues></_>
        <_>
          <internalNodes>
            0 -1 9 -7.8477539122104645e-02</internalNodes>
          <leafValues>
            6.0635685920715332e-01 -1.0968112945556641e-01</leafValues></_>
        <_>
          <internalNodes>
            0 -1 38 5.8820825070142746e-03</internalNodes>
          <leafValues>
            -4.8291996121406555e-01 1.5886768698692322e-01</leafValues></_>
        <_>
          <internalNodes>
            0 -1 251 1.9150155130773783e-03</internalNodes>
          <leafValues>
            -1.2717720866203308e-01 4.7270843386650085e-01</leafValues></_>
        <_>
          <internalNodes>
            0 -1 122 -1.1554367374628782e-03</internalNodes>
          <leafValues>
            -5.9052032232284546e-01 1.0664479434490204e-01</leafValues></_>
        <_>
          <internalNodes>
            0 -1 191 2.4826549924910069e-03</internalNodes>
          <leafValues>
            -1.7838723957538605e-01 3.5644522309303284e-01</leafValues></_>
        <_>
          <internalNodes>
            0 -1 206 -8.3012267714366317e-04</internalNodes>
          <leafValues>
            -3.6647891998291016e-01 1.6498771309852600e-01</leafValues></_>
        <_>
          <internalNodes>
            0 -1 188 -2.6166490279138088e-03</internalNodes>
          <leafValues>
            4.7644612193107605e-01 -1.2690109014511108e-01</leafValues></_>
        <_>
          <internalNodes>
            0 -1 130 -1.9913565367460251e-02</internalNodes>
          <leafValues>
            -5.3391778469085693e-01 1.0182561725378036e-01</leafValues></_>
        <_>
          <internalNodes>
            0 -1 263 1.9447952508926392e-02</internalNodes>
          <leafValues>
            6.5180227160453796e-02 -7.4264413118362427e-01</leafValues></_>
        <_>
          <internalNodes>
            0 -1 262 6.6508352756500244e-04</internalNodes>
          <leafValues>
            -1.6888265311717987e-01 3.2311853766441345e-01</leafValues></_>
        <_>
          <internalNodes>
            0 -1 260 7.8298836946487427e-02</internalNodes>
          <leafValues>
            -1.0371954739093781e-01 4.9719414114952087e-01</leafValues></_>
        <_>
          <internalNodes>
            0 -1 52 2.7863539755344391e-02</internalNodes>
          <leafValues>
            -1.2329721450805664e-01 5.1884472370147705e-01</leafValues></_></weakClassifiers></_>
    <!-- stage 14 -->
    <_>
      <maxWeakCount>28</maxWeakCount>
      <stageThreshold>-7.9475539922714233e-01</stageThreshold>
      <weakClassifiers>
        <_>
          <internalNodes>
            0 -1 162 7.4743130244314671e-03</internalNodes>
          <leafValues>
            9.2457421123981476e-02 6.2536871433258057e-01</leafValues></_>
        <_>
          <internalNodes>
            0 -1 216 7.3400917463004589e-03</internalNodes>
          <leafValues>
            -1.6992971301078796e-01 3.8655033707618713e-01</leafValues></_>
        <_>
          <internalNodes>
            0 -1 178 -1.4846076956018806e-03</internalNodes>
          <leafValues>
            2.5352302193641663e-01 -2.4920757114887238e-01</leafValues></_>
        <_>
          <internalNodes>
            0 -1 138 6.0813374817371368e-02</internalNodes>
          <leafValues>
            -1.3157780468463898e-01 6.5289890766143799e-01</leafValues></_>
        <_>
          <internalNodes>
            0 -1 183 6.0653546825051308e-05</internalNodes>
          <leafValues>
            -3.3196243643760681e-01 1.9094429910182953e-01</leafValues></_>
        <_>
          <internalNodes>
            0 -1 90 -4.4090062379837036e-02</internalNodes>
          <leafValues>
            4.0624144673347473e-01 -1.5573264658451080e-01</leafValues></_>
        <_>
          <internalNodes>
            0 -1 147 -1.2277567386627197e-01</internalNodes>
          <leafValues>
            4.6883860230445862e-01 -1.6013829410076141e-01</leafValues></_>
        <_>
          <internalNodes>
            0 -1 85 8.6936149746179581e-03</internalNodes>
          <leafValues>
            1.2797585129737854e-01 -4.9564492702484131e-01</leafValues></_>
        <_>
          <internalNodes>
            0 -1 160 7.0321182720363140e-03</internalNodes>
          <leafValues>
            -2.2561374306678772e-01 3.0420702695846558e-01</leafValues></_>
        <_>
          <internalNodes>
            0 -1 272 1.1740574846044183e-03</internalNodes>
          <leafValues>
            -2.0530930161476135e-01 3.0743613839149475e-01</leafValues></_>
        <_>
          <internalNodes>
            0 -1 120 1.1851350776851177e-02</internalNodes>
          <leafValues>
            -1.4451459050178528e-01 4.4020897150039673e-01</leafValues></_>
        <_>
          <internalNodes>
            0 -1 143 1.9027625676244497e-03</internalNodes>
          <leafValues>
            -7.4532932043075562e-01 1.1055132746696472e-01</leafValues></_>
        <_>
          <internalNodes>
            0 -1 166 -1.0291121900081635e-02</internalNodes>
          <leafValues>
            8.3896920084953308e-02 -6.6050934791564941e-01</leafValues></_>
        <_>
          <internalNodes>
            0 -1 233 -1.3516135513782501e-02</internalNodes>
          <leafValues>
            -5.1670223474502563e-01 9.6567600965499878e-02</leafValues></_>
        <_>
          <internalNodes>
            0 -1 32 7.2684958577156067e-03</internalNodes>
          <leafValues>
            7.2734773159027100e-02 -6.4121216535568237e-01</leafValues></_>
        <_>
          <internalNodes>
            0 -1 97 2.6116345077753067e-02</internalNodes>
          <leafValues>
            8.9397795498371124e-02 -5.3467088937759399e-01</leafValues></_>
        <_>
          <internalNodes>
            0 -1 189 -1.7547111492604017e-03</internalNodes>
          <leafValues>
            4.3104895949363708e-01 -1.4312298595905304e-01</leafValues></_>
        <_>
          <internalNodes>
            0 -1 6 1.1515119113028049e-03</internalNodes>
          <leafValues>
            1.2659871578216553e-01 -4.7900661826133728e-01</leafValues></_>
        <_>
          <internalNodes>
            0 -1 195 5.8384291827678680e-02</internalNodes>
          <leafValues>
            5.9471227228641510e-02 -7.6570338010787964e-01</leafValues></_>
        <_>
          <internalNodes>
            0 -1 139 -4.1880451142787933e-02</internalNodes>
          <leafValues>
            4.6499955654144287e-01 -1.1877479404211044e-01</leafValues></_>
        <_>
          <internalNodes>
            0 -1 273 8.9922698680311441e-04</internalNodes>
          <leafValues>
            -1.3264231383800507e-01 3.4052410721778870e-01</leafValues></_>
        <_>
          <internalNodes>
            0 -1 258 -3.6629645619541407e-03</internalNodes>
          <leafValues>
            3.7701171636581421e-01 -1.3198079168796539e-01</leafValues></_>
        <_>
          <internalNodes>
            0 -1 241 5.8763176202774048e-03</internalNodes>
          <leafValues>
            -1.4137431979179382e-01 3.6877554655075073e-01</leafValues></_>
        <_>
          <internalNodes>
            0 -1 11 -2.3346573114395142e-01</internalNodes>
          <leafValues>
            6.5656888484954834e-01 -9.3620203435420990e-02</leafValues></_>
        <_>
          <internalNodes>
            0 -1 31 -2.6982519775629044e-02</internalNodes>
          <leafValues>
            -8.5671603679656982e-01 7.5062923133373260e-02</leafValues></_>
        <_>
          <internalNodes>
            0 -1 73 -2.3389235138893127e-03</internalNodes>
          <leafValues>
            -6.2495934963226318e-01 7.2065323591232300e-02</leafValues></_>
        <_>
          <internalNodes>
            0 -1 153 -2.5403033941984177e-03</internalNodes>
          <leafValues>
            5.0312048196792603e-01 -1.1122899502515793e-01</leafValues></_>
        <_>
          <internalNodes>
            0 -1 28 -2.0840782672166824e-03</internalNodes>
          <leafValues>
            -6.2370508909225464e-01 9.0714916586875916e-02</leafValues></_></weakClassifiers></_>
    <!-- stage 15 -->
    <_>
      <maxWeakCount>30</maxWeakCount>
      <stageThreshold>-9.2852604389190674e-01</stageThreshold>
      <weakClassifiers>
        <_>
          <internalNodes>
            0 -1 107 -1.9991121371276677e-04</internalNodes>
          <leafValues>
            4.5503875613212585e-01 -4.1428571939468384e-01</leafValues></_>
        <_>
          <internalNodes>
            0 -1 203 8.8019054383039474e-03</internalNodes>
          <leafValues>
            -2.1863369643688202e-01 3.6912873387336731e-01</leafValues></_>
        <_>
          <internalNodes>
            0 -1 247 -1.9832938050967641e-05</internalNodes>
          <leafValues>
            1.4946296811103821e-01 -4.3899193406105042e-01</leafValues></_>
        <_>
          <internalNodes>
            0 -1 114 2.7544604614377022e-02</internalNodes>
          <leafValues>
            -4.3442004919052124e-01 1.3988056778907776e-01</leafValues></_>
        <_>
          <internalNodes>
            0 -1 47 5.7267108932137489e-03</internalNodes>
          <leafValues>
            -1.6471871733665466e-01 4.1080081462860107e-01</leafValues></_>
        <_>
          <internalNodes>
            0 -1 19 -2.5567120313644409e-01</internalNodes>
          <leafValues>
            5.6079715490341187e-01 -1.6212025284767151e-01</leafValues></_>
        <_>
          <internalNodes>
            0 -1 62 4.1826092638075352e-03</internalNodes>
          <leafValues>
            -5.7696592807769775e-01 1.6787165403366089e-01</leafValues></_>
        <_>
          <internalNodes>
            0 -1 118 -2.4253767915070057e-03</internalNodes>
          <leafValues>
            5.8481287956237793e-01 -1.2362225353717804e-01</leafValues></_>
        <_>
          <internalNodes>
            0 -1 157 -1.8428461626172066e-03</internalNodes>
          <leafValues>
            3.5280263423919678e-01 -2.0488923788070679e-01</leafValues></_>
        <_>
          <internalNodes>
            0 -1 48 -8.9134890586137772e-03</internalNodes>
          <leafValues>
            -6.2403815984725952e-01 1.1713922768831253e-01</leafValues></_>
        <_>
          <internalNodes>
            0 -1 256 2.3679817095398903e-03</internalNodes>
          <leafValues>
            -2.1197298169136047e-01 2.6877370476722717e-01</leafValues></_>
        <_>
          <internalNodes>
            0 -1 13 -4.1477382183074951e-03</internalNodes>
          <leafValues>
            -6.6119194030761719e-01 7.2240144014358521e-02</leafValues></_>
        <_>
          <internalNodes>
            0 -1 21 1.2188330292701721e-01</internalNodes>
          <leafValues>
            -1.2376505136489868e-01 4.4889220595359802e-01</leafValues></_>
        <_>
          <internalNodes>
            0 -1 16 4.3170105665922165e-02</internalNodes>
          <leafValues>
            -1.2846161425113678e-01 4.4205552339553833e-01</leafValues></_>
        <_>
          <internalNodes>
            0 -1 54 7.8736338764429092e-04</internalNodes>
          <leafValues>
            -1.8474729359149933e-01 3.1820836663246155e-01</leafValues></_>
        <_>
          <internalNodes>
            0 -1 50 -5.3367889486253262e-03</internalNodes>
          <leafValues>
            -7.1484059095382690e-01 6.1855483800172806e-02</leafValues></_>
        <_>
          <internalNodes>
            0 -1 86 8.6456097662448883e-02</internalNodes>
          <leafValues>
            1.0243778675794601e-01 -5.0450670719146729e-01</leafValues></_>
        <_>
          <internalNodes>
            0 -1 155 2.7704071253538132e-02</internalNodes>
          <leafValues>
            -5.0936824083328247e-01 1.0251934826374054e-01</leafValues></_>
        <_>
          <internalNodes>
            0 -1 10 -7.8401744365692139e-02</internalNodes>
          <leafValues>
            4.3422821164131165e-01 -1.1785285919904709e-01</leafValues></_>
        <_>
          <internalNodes>
            0 -1 95 2.6191523298621178e-02</internalNodes>
          <leafValues>
            -3.2148933410644531e-01 1.9246295094490051e-01</leafValues></_>
        <_>
          <internalNodes>
            0 -1 96 1.7755767330527306e-02</internalNodes>
          <leafValues>
            7.5972922146320343e-02 -6.3712984323501587e-01</leafValues></_>
        <_>
          <internalNodes>
            0 -1 231 1.1151740327477455e-02</internalNodes>
          <leafValues>
            -1.0744776576757431e-01 4.7909343242645264e-01</leafValues></_>
        <_>
          <internalNodes>
            0 -1 269 2.5504590666969307e-05</internalNodes>
          <leafValues>
            -1.8192170560359955e-01 3.0137050151824951e-01</leafValues></_>
        <_>
          <internalNodes>
            0 -1 75 -2.4348782608285546e-04</internalNodes>
          <leafValues>
            2.1397180855274200e-01 -2.2830335795879364e-01</leafValues></_>
        <_>
          <internalNodes>
            0 -1 168 2.8341752476990223e-03</internalNodes>
          <leafValues>
            5.6791409850120544e-02 -8.4195923805236816e-01</leafValues></_>
        <_>
          <internalNodes>
            0 -1 80 -1.7128210514783859e-02</internalNodes>
          <leafValues>
            -5.8685505390167236e-01 6.6940985620021820e-02</leafValues></_>
        <_>
          <internalNodes>
            0 -1 7 -3.1841788440942764e-03</internalNodes>
          <leafValues>
            -3.8657256960868835e-01 1.1294269561767578e-01</leafValues></_>
        <_>
          <internalNodes>
            0 -1 270 -2.1816815205966122e-05</internalNodes>
          <leafValues>
            1.4900492131710052e-01 -3.1026792526245117e-01</leafValues></_>
        <_>
          <internalNodes>
            0 -1 104 -1.0622383560985327e-03</internalNodes>
          <leafValues>
            3.6120268702507019e-01 -1.1856867372989655e-01</leafValues></_>
        <_>
          <internalNodes>
            0 -1 161 -4.2748526902869344e-04</internalNodes>
          <leafValues>
            3.7212628126144409e-01 -1.7827421426773071e-01</leafValues></_></weakClassifiers></_>
    <!-- stage 16 -->
    <_>
      <maxWeakCount>28</maxWeakCount>
      <stageThreshold>-7.7986717224121094e-01</stageThreshold>
      <weakClassifiers>
        <_>
          <internalNodes>
            0 -1 87 5.3815105929970741e-03</internalNodes>
          <leafValues>
            -3.7215191125869751e-01 4.4030711054801941e-01</leafValues></_>
        <_>
          <internalNodes>
            0 -1 268 -3.9516063407063484e-03</internalNodes>
          <leafValues>
            4.4133225083351135e-01 -1.6299173235893250e-01</leafValues></_>
        <_>
          <internalNodes>
            0 -1 101 6.8306378088891506e-03</internalNodes>
          <leafValues>
            1.4616939425468445e-01 -5.0540846586227417e-01</leafValues></_>
        <_>
          <internalNodes>
            0 -1 109 9.8836263641715050e-03</internalNodes>
          <leafValues>
            1.2034653872251511e-01 -5.2738654613494873e-01</leafValues></_>
        <_>
          <internalNodes>
            0 -1 192 -1.2755062431097031e-02</internalNodes>
          <leafValues>
            5.7501298189163208e-01 -1.1170220375061035e-01</leafValues></_>
        <_>
          <internalNodes>
            0 -1 159 5.6345779448747635e-03</internalNodes>
          <leafValues>
            -4.7963559627532959e-01 1.2229365110397339e-01</leafValues></_>
        <_>
          <internalNodes>
            0 -1 194 -3.4539031912572682e-04</internalNodes>
          <leafValues>
            3.0102720856666565e-01 -1.6807094216346741e-01</leafValues></_>
        <_>
          <internalNodes>
            0 -1 2 -8.2303576171398163e-02</internalNodes>
          <leafValues>
            5.3386223316192627e-01 -1.1275044083595276e-01</leafValues></_>
        <_>
          <internalNodes>
            0 -1 0 2.1192318201065063e-01</internalNodes>
          <leafValues>
            -1.6853281855583191e-01 4.0952742099761963e-01</leafValues></_>
        <_>
          <internalNodes>
            0 -1 179 2.9321001842617989e-02</internalNodes>
          <leafValues>
            -8.4475524723529816e-02 5.3279161453247070e-01</leafValues></_>
        <_>
          <internalNodes>
            0 -1 224 -5.6977332569658756e-03</internalNodes>
          <leafValues>
            4.4292998313903809e-01 -1.3029678165912628e-01</leafValues></_>
        <_>
          <internalNodes>
            0 -1 193 1.6112389042973518e-02</internalNodes>
          <leafValues>
            1.2567710876464844e-01 -4.2120578885078430e-01</leafValues></_>
        <_>
          <internalNodes>
            0 -1 188 2.8696940280497074e-03</internalNodes>
          <leafValues>
            -1.9090843200683594e-01 3.1754827499389648e-01</leafValues></_>
        <_>
          <internalNodes>
            0 -1 253 2.5284063071012497e-02</internalNodes>
          <leafValues>
            7.3624916374683380e-02 -7.6265728473663330e-01</leafValues></_>
        <_>
          <internalNodes>
            0 -1 157 2.1938616409897804e-03</internalNodes>
          <leafValues>
            -1.3434906303882599e-01 4.1668665409088135e-01</leafValues></_>
        <_>
          <internalNodes>
            0 -1 60 5.6465556845068932e-03</internalNodes>
          <leafValues>
            7.5545266270637512e-02 -8.0129534006118774e-01</leafValues></_>
        <_>
          <internalNodes>
            0 -1 141 -5.4128319025039673e-03</internalNodes>
          <leafValues>
            1.7300832271575928e-01 -2.9475629329681396e-01</leafValues></_>
        <_>
          <internalNodes>
            0 -1 202 -3.4194844774901867e-03</internalNodes>
          <leafValues>
            3.9499160647392273e-01 -1.3300326466560364e-01</leafValues></_>
        <_>
          <internalNodes>
            0 -1 128 2.1393469069153070e-03</internalNodes>
          <leafValues>
            8.2928799092769623e-02 -7.6893049478530884e-01</leafValues></_>
        <_>
          <internalNodes>
            0 -1 167 -1.0049525648355484e-02</internalNodes>
          <leafValues>
            -3.0847927927970886e-01 1.5233732759952545e-01</leafValues></_>
        <_>
          <internalNodes>
            0 -1 81 1.1151297017931938e-02</internalNodes>
          <leafValues>
            -5.8713287115097046e-01 7.9237610101699829e-02</leafValues></_>
        <_>
          <internalNodes>
            0 -1 76 -2.5076628662645817e-03</internalNodes>
          <leafValues>
            2.7616485953330994e-01 -1.9010794162750244e-01</leafValues></_>
        <_>
          <internalNodes>
            0 -1 267 -4.2345374822616577e-03</internalNodes>
          <leafValues>
            -7.1332526206970215e-01 8.4396369755268097e-02</leafValues></_>
        <_>
          <internalNodes>
            0 -1 178 -2.0618978887796402e-03</internalNodes>
          <leafValues>
            2.2377109527587891e-01 -2.2797194123268127e-01</leafValues></_>
        <_>
          <internalNodes>
            0 -1 69 3.7297909148037434e-03</internalNodes>
          <leafValues>
            -1.2809810042381287e-01 3.8282522559165955e-01</leafValues></_>
        <_>
          <internalNodes>
            0 -1 171 -2.7630140539258718e-04</internalNodes>
          <leafValues>
            3.2402181625366211e-01 -1.4738795161247253e-01</leafValues></_>
        <_>
          <internalNodes>
            0 -1 135 -4.1532632167218253e-05</internalNodes>
          <leafValues>
            1.8105703592300415e-01 -2.7817609906196594e-01</leafValues></_>
        <_>
          <internalNodes>
            0 -1 177 8.1305317580699921e-03</internalNodes>
          <leafValues>
            7.3174268007278442e-02 -7.2804832458496094e-01</leafValues></_></weakClassifiers></_>
    <!-- stage 17 -->
    <_>
      <maxWeakCount>27</maxWeakCount>
      <stageThreshold>-7.8048884868621826e-01</stageThreshold>
      <weakClassifiers>
        <_>
          <internalNodes>
            0 -1 164 4.9144895747303963e-03</internalNodes>
          <leafValues>
            9.0372122824192047e-02 6.4804893732070923e-01</leafValues></_>
        <_>
          <internalNodes>
            0 -1 110 3.0106692574918270e-03</internalNodes>
          <leafValues>
            -1.1284067481756210e-01 4.7106248140335083e-01</leafValues></_>
        <_>
          <internalNodes>
            0 -1 25 -1.8179082870483398e-01</internalNodes>
          <leafValues>
            6.4844250679016113e-01 -1.3071368634700775e-01</leafValues></_>
        <_>
          <internalNodes>
            0 -1 61 -2.5897705927491188e-03</internalNodes>
          <leafValues>
            -7.0408934354782104e-01 1.3704605400562286e-01</leafValues></_>
        <_>
          <internalNodes>
            0 -1 99 -1.1718096211552620e-03</internalNodes>
          <leafValues>
            3.5247769951820374e-01 -1.8889763951301575e-01</leafValues></_>
        <_>
          <internalNodes>
            0 -1 121 1.2500060256570578e-03</internalNodes>
          <leafValues>
            -1.5758515894412994e-01 3.9847302436828613e-01</leafValues></_>
        <_>
          <internalNodes>
            0 -1 70 3.2769381068646908e-03</internalNodes>
          <leafValues>
            1.0459803044795990e-01 -6.1497968435287476e-01</leafValues></_>
        <_>
          <internalNodes>
            0 -1 137 2.1906318143010139e-03</internalNodes>
          <leafValues>
            -1.7039945721626282e-01 3.7343275547027588e-01</leafValues></_>
        <_>
          <internalNodes>
            0 -1 156 1.4897020533680916e-02</internalNodes>
          <leafValues>
            -7.0586377382278442e-01 1.1425758153200150e-01</leafValues></_>
        <_>
          <internalNodes>
            0 -1 199 -1.0730929672718048e-02</internalNodes>
          <leafValues>
            -5.5185765027999878e-01 7.3102779686450958e-02</leafValues></_>
        <_>
          <internalNodes>
            0 -1 271 2.4469945579767227e-02</internalNodes>
          <leafValues>
            7.0417992770671844e-02 -7.0561009645462036e-01</leafValues></_>
        <_>
          <internalNodes>
            0 -1 99 1.7409790307283401e-03</internalNodes>
          <leafValues>
            -1.2021467089653015e-01 4.0630823373794556e-01</leafValues></_>
        <_>
          <internalNodes>
            0 -1 144 3.3505274914205074e-03</internalNodes>
          <leafValues>
            -4.5510128140449524e-01 1.2533034384250641e-01</leafValues></_>
        <_>
          <internalNodes>
            0 -1 92 -8.0432429909706116e-02</internalNodes>
          <leafValues>
            4.9437648057937622e-01 -1.4304403960704803e-01</leafValues></_>
        <_>
          <internalNodes>
            0 -1 58 2.3819645866751671e-04</internalNodes>
          <leafValues>
            -2.4266307055950165e-01 2.2677066922187805e-01</leafValues></_>
        <_>
          <internalNodes>
            0 -1 274 1.2937083374708891e-03</internalNodes>
          <leafValues>
            1.3294707238674164e-01 -3.7053140997886658e-01</leafValues></_>
        <_>
          <internalNodes>
            0 -1 41 -2.2843930870294571e-02</internalNodes>
          <leafValues>
            -7.8868848085403442e-01 4.5394245535135269e-02</leafValues></_>
        <_>
          <internalNodes>
            0 -1 248 -5.3651107009500265e-04</internalNodes>
          <leafValues>
            2.0497034490108490e-01 -2.3193261027336121e-01</leafValues></_>
        <_>
          <internalNodes>
            0 -1 175 -6.0380075592547655e-04</internalNodes>
          <leafValues>
            -2.6422485709190369e-01 1.8668363988399506e-01</leafValues></_>
        <_>
          <internalNodes>
            0 -1 12 3.2691133674234152e-03</internalNodes>
          <leafValues>
            9.8795719444751740e-02 -4.6260502934455872e-01</leafValues></_>
        <_>
          <internalNodes>
            0 -1 246 -1.1621629819273949e-02</internalNodes>
          <leafValues>
            -7.2755485773086548e-01 5.3729552775621414e-02</leafValues></_>
        <_>
          <internalNodes>
            0 -1 36 2.1034318953752518e-02</internalNodes>
          <leafValues>
            6.2739193439483643e-02 -6.1432909965515137e-01</leafValues></_>
        <_>
          <internalNodes>
            0 -1 53 3.8783580064773560e-02</internalNodes>
          <leafValues>
            9.6690073609352112e-02 -4.5476254820823669e-01</leafValues></_>
        <_>
          <internalNodes>
            0 -1 196 4.3706968426704407e-03</internalNodes>
          <leafValues>
            -1.2818862497806549e-01 4.3533653020858765e-01</leafValues></_>
        <_>
          <internalNodes>
            0 -1 79 1.4468454755842686e-03</internalNodes>
          <leafValues>
            -6.6226208209991455e-01 8.3601467311382294e-02</leafValues></_>
        <_>
          <internalNodes>
            0 -1 78 -7.6870545744895935e-03</internalNodes>
          <leafValues>
            -5.4078531265258789e-01 6.8802423775196075e-02</leafValues></_>
        <_>
          <internalNodes>
            0 -1 103 -1.1864199768751860e-04</internalNodes>
          <leafValues>
            2.4920120835304260e-01 -1.7890287935733795e-01</leafValues></_></weakClassifiers></_></stages>
  <features>
    <_>
      <rects>
        <_>
          0 3 12 12 -1.</_>
        <_>
          6 3 6 12 2.</_></rects>
      <tilted>0</tilted></_>
    <_>
      <rects>
        <_>
          0 3 18 13 -1.</_>
        <_>
          6 3 6 13 3.</_></rects>
      <tilted>0</tilted></_>
    <_>
      <rects>
        <_>
          0 4 10 7 -1.</_>
        <_>
          5 4 5 7 2.</_></rects>
      <tilted>0</tilted></_>
    <_>
      <rects>
        <_>
          0 4 12 10 -1.</_>
        <_>
          6 4 6 10 2.</_></rects>
      <tilted>0</tilted></_>
    <_>
      <rects>
        <_>
          0 4 14 11 -1.</_>
        <_>
          7 4 7 11 2.</_></rects>
      <tilted>0</tilted></_>
    <_>
      <rects>
        <_>
          0 6 10 9 -1.</_>
        <_>
          5 6 5 9 2.</_></rects>
      <tilted>0</tilted></_>
    <_>
      <rects>
        <_>
          0 7 2 1 -1.</_>
        <_>
          1 7 1 1 2.</_></rects>
      <tilted>0</tilted></_>
    <_>
      <rects>
        <_>
          0 8 2 12 -1.</_>
        <_>
          0 8 1 6 2.</_>
        <_>
          1 14 1 6 2.</_></rects>
      <tilted>0</tilted></_>
    <_>
      <rects>
        <_>
          0 10 10 4 -1.</_>
        <_>
          5 10 5 4 2.</_></rects>
      <tilted>0</tilted></_>
    <_>
      <rects>
        <_>
          0 11 12 4 -1.</_>
        <_>
          6 11 6 4 2.</_></rects>
      <tilted>0</tilted></_>
    <_>
      <rects>
        <_>
          1 1 16 10 -1.</_>
        <_>
          1 6 16 5 2.</_></rects>
      <tilted>0</tilted></_>
    <_>
      <rects>
        <_>
          1 4 18 11 -1.</_>
        <_>
          7 4 6 11 3.</_></rects>
      <tilted>0</tilted></_>
    <_>
      <rects>
        <_>
          1 5 2 5 -1.</_>
        <_>
          2 5 1 5 2.</_></rects>
      <tilted>0</tilted></_>
    <_>
      <rects>
        <_>
          1 5 4 2 -1.</_>
        <_>
          1 5 2 1 2.</_>
        <_>
          3 6 2 1 2.</_></rects>
      <tilted>0</tilted></_>
    <_>
      <rects>
        <_>
          1 6 18 3 -1.</_>
        <_>
          7 6 6 3 3.</_></rects>
      <tilted>0</tilted></_>
    <_>
      <rects>
        <_>
          1 6 18 7 -1.</_>
        <_>
          7 6 6 7 3.</_></rects>
      <tilted>0</tilted></_>
    <_>
      <rects>
        <_>
          1 13 18 2 -1.</_>
        <_>
          7 13 6 2 3.</_></rects>
      <tilted>0</tilted></_>
    <_>
      <rects>
        <_>
          1 13 18 3 -1.</_>
        <_>
          7 13 6 3 3.</_></rects>
      <tilted>0</tilted></_>
    <_>
      <rects>
        <_>
          2 0 15 18 -1.</_>
        <_>
          2 6 15 6 3.</_></rects>
      <tilted>0</tilted></_>
    <_>
      <rects>
        <_>
          2 3 18 13 -1.</_>
        <_>
          8 3 6 13 3.</_></rects>
      <tilted>0</tilted></_>
    <_>
      <rects>
        <_>
          2 4 18 12 -1.</_>
        <_>
          8 4 6 12 3.</_></rects>
      <tilted>0</tilted></_>
    <_>
      <rects>
        <_>
          2 4 15 16 -1.</_>
        <_>
          2 12 15 8 2.</_></rects>
      <tilted>0</tilted></_>
    <_>
      <rects>
        <_>
          2 5 2 4 -1.</_>
        <_>
          3 5 1 4 2.</_></rects>
      <tilted>0</tilted></_>
    <_>
      <rects>
        <_>
          2 5 18 7 -1.</_>
        <_>
          8 5 6 7 3.</_></rects>
      <tilted>0</tilted></_>
    <_>
      <rects>
        <_>
          2 6 8 10 -1.</_>
        <_>
          6 6 4 10 2.</_></rects>
      <tilted>0</tilted></_>
    <_>
      <rects>
        <_>
          2 12 18 4 -1.</_>
        <_>
          8 12 6 4 3.</_></rects>
      <tilted>0</tilted></_>
    <_>
      <rects>
        <_>
          3 1 13 8 -1.</_>
        <_>
          3 5 13 4 2.</_></rects>
      <tilted>0</tilted></_>
    <_>
      <rects>
        <_>
          3 8 4 6 -1.</_>
        <_>
          5 8 2 6 2.</_></rects>
      <tilted>0</tilted></_>
    <_>
      <rects>
        <_>
          3 19 2 1 -1.</_>
        <_>
          4 19 1 1 2.</_></rects>
      <tilted>0</tilted></_>
    <_>
      <rects>
        <_>
          4 0 12 8 -1.</_>
        <_>
          4 4 12 4 2.</_></rects>
      <tilted>0</tilted></_>
    <_>
      <rects>
        <_>
          4 6 4 8 -1.</_>
        <_>
          6 6 2 8 2.</_></rects>
      <tilted>0</tilted></_>
    <_>
      <rects>
        <_>
          4 7 6 2 -1.</_>
        <_>
          6 7 2 2 3.</_></rects>
      <tilted>0</tilted></_>
    <_>
      <rects>
        <_>
          4 7 5 2 -1.</_>
        <_>
          4 8 5 1 2.</_></rects>
      <tilted>0</tilted></_>
    <_>
      <rects>
        <_>
          4 10 11 10 -1.</_>
        <_>
          4 15 11 5 2.</_></rects>
      <tilted>0</tilted></_>
    <_>
      <rects>
        <_>
          5 1 11 6 -1.</_>
        <_>
          5 4 11 3 2.</_></rects>
      <tilted>0</tilted></_>
    <_>
      <rects>
        <_>
          5 2 15 18 -1.</_>
        <_>
          5 8 15 6 3.</_></rects>
      <tilted>0</tilted></_>
    <_>
      <rects>
        <_>
          5 5 6 4 -1.</_>
        <_>
          7 5 2 4 3.</_></rects>
      <tilted>0</tilted></_>
    <_>
      <rects>
        <_>
          5 5 12 6 -1.</_>
        <_>
          5 5 6 3 2.</_>
        <_>
          11 8 6 3 2.</_></rects>
      <tilted>0</tilted></_>
    <_>
      <rects>
        <_>
          5 6 4 5 -1.</_>
        <_>
          7 6 2 5 2.</_></rects>
      <tilted>0</tilted></_>
    <_>
      <rects>
        <_>
          5 7 2 1 -1.</_>
        <_>
          6 7 1 1 2.</_></rects>
      <tilted>0</tilted></_>
    <_>
      <rects>
        <_>
          5 7 2 7 -1.</_>
        <_>
          6 7 1 7 2.</_></rects>
      <tilted>0</tilted></_>
    <_>
      <rects>
        <_>
          5 7 6 2 -1.</_>
        <_>
          7 7 2 2 3.</_></rects>
      <tilted>0</tilted></_>
    <_>
      <rects>
        <_>
          5 7 4 3 -1.</_>
        <_>
          5 8 4 1 3.</_></rects>
      <tilted>0</tilted></_>
    <_>
      <rects>
        <_>
          5 7 4 4 -1.</_>
        <_>
          5 9 4 2 2.</_></rects>
      <tilted>0</tilted></_>
    <_>
      <rects>
        <_>
          5 7 12 4 -1.</_>
        <_>
          5 7 6 2 2.</_>
        <_>
          11 9 6 2 2.</_></rects>
      <tilted>0</tilted></_>
    <_>
      <rects>
        <_>
          5 7 11 4 -1.</_>
        <_>
          5 9 11 2 2.</_></rects>
      <tilted>0</tilted></_>
    <_>
      <rects>
        <_>
          5 8 3 2 -1.</_>
        <_>
          6 8 1 2 3.</_></rects>
      <tilted>0</tilted></_>
    <_>
      <rects>
        <_>
          5 8 3 3 -1.</_>
        <_>
          6 8 1 3 3.</_></rects>
      <tilted>0</tilted></_>
    <_>
      <rects>
        <_>
          5 8 4 4 -1.</_>
        <_>
          5 8 2 2 2.</_>
        <_>
          7 10 2 2 2.</_></rects>
      <tilted>0</tilted></_>
    <_>
      <rects>
        <_>
          5 8 12 4 -1.</_>
        <_>
          11 8 6 4 2.</_></rects>
      <tilted>0</tilted></_>
    <_>
      <rects>
        <_>
          5 9 4 3 -1.</_>
        <_>
          5 10 4 1 3.</_></rects>
      <tilted>0</tilted></_>
    <_>
      <rects>
        <_>
          6 1 9 6 -1.</_>
        <_>
          6 4 9 3 2.</_></rects>
      <tilted>0</tilted></_>
    <_>
      <rects>
        <_>
          6 2 7 4 -1.</_>
        <_>
          6 4 7 2 2.</_></rects>
      <tilted>0</tilted></_>
    <_>
      <rects>
        <_>
          6 3 10 13 -1.</_>
        <_>
          11 3 5 13 2.</_></rects>
      <tilted>0</tilted></_>
    <_>
      <rects>
        <_>
          6 5 2 2 -1.</_>
        <_>
          6 5 1 1 2.</_>
        <_>
          7 6 1 1 2.</_></rects>
      <tilted>0</tilted></_>
    <_>
      <rects>
        <_>
          6 5 6 3 -1.</_>
        <_>
          8 5 2 3 3.</_></rects>
      <tilted>0</tilted></_>
    <_>
      <rects>
        <_>
          6 5 3 6 -1.</_>
        <_>
          6 7 3 2 3.</_></rects>
      <tilted>0</tilted></_>
    <_>
      <rects>
        <_>
          6 5 9 9 -1.</_>
        <_>
          6 8 9 3 3.</_></rects>
      <tilted>0</tilted></_>
    <_>
      <rects>
        <_>
          6 6 1 2 -1.</_>
        <_>
          6 7 1 1 2.</_></rects>
      <tilted>0</tilted></_>
    <_>
      <rects>
        <_>
          6 6 2 4 -1.</_>
        <_>
          6 6 1 2 2.</_>
        <_>
          7 8 1 2 2.</_></rects>
      <tilted>0</tilted></_>
    <_>
      <rects>
        <_>
          6 6 2 2 -1.</_>
        <_>
          6 7 2 1 2.</_></rects>
      <tilted>0</tilted></_>
    <_>
      <rects>
        <_>
          6 6 4 2 -1.</_>
        <_>
          8 6 2 2 2.</_></rects>
      <tilted>0</tilted></_>
    <_>
      <rects>
        <_>
          6 6 4 4 -1.</_>
        <_>
          8 6 2 4 2.</_></rects>
      <tilted>0</tilted></_>
    <_>
      <rects>
        <_>
          6 6 3 3 -1.</_>
        <_>
          6 7 3 1 3.</_></rects>
      <tilted>0</tilted></_>
    <_>
      <rects>
        <_>
          6 6 9 4 -1.</_>
        <_>
          9 6 3 4 3.</_></rects>
      <tilted>0</tilted></_>
    <_>
      <rects>
        <_>
          6 6 9 6 -1.</_>
        <_>
          9 6 3 6 3.</_></rects>
      <tilted>0</tilted></_>
    <_>
      <rects>
        <_>
          6 6 9 7 -1.</_>
        <_>
          9 6 3 7 3.</_></rects>
      <tilted>0</tilted></_>
    <_>
      <rects>
        <_>
          6 6 4 4 -1.</_>
        <_>
          6 8 4 2 2.</_></rects>
      <tilted>0</tilted></_>
    <_>
      <rects>
        <_>
          6 6 9 9 -1.</_>
        <_>
          6 9 9 3 3.</_></rects>
      <tilted>0</tilted></_>
    <_>
      <rects>
        <_>
          6 7 3 2 -1.</_>
        <_>
          7 7 1 2 3.</_></rects>
      <tilted>0</tilted></_>
    <_>
      <rects>
        <_>
          6 7 2 2 -1.</_>
        <_>
          6 8 2 1 2.</_></rects>
      <tilted>0</tilted></_>
    <_>
      <rects>
        <_>
          6 7 2 6 -1.</_>
        <_>
          6 9 2 2 3.</_></rects>
      <tilted>0</tilted></_>
    <_>
      <rects>
        <_>
          6 7 2 6 -1.</_>
        <_>
          6 10 2 3 2.</_></rects>
      <tilted>0</tilted></_>
    <_>
      <rects>
        <_>
          6 7 3 2 -1.</_>
        <_>
          6 8 3 1 2.</_></rects>
      <tilted>0</tilted></_>
    <_>
      <rects>
        <_>
          6 7 9 6 -1.</_>
        <_>
          9 7 3 6 3.</_></rects>
      <tilted>0</tilted></_>
    <_>
      <rects>
        <_>
          6 7 7 4 -1.</_>
        <_>
          6 9 7 2 2.</_></rects>
      <tilted>0</tilted></_>
    <_>
      <rects>
        <_>
          6 8 3 1 -1.</_>
        <_>
          7 8 1 1 3.</_></rects>
      <tilted>0</tilted></_>
    <_>
      <rects>
        <_>
          6 8 3 2 -1.</_>
        <_>
          7 8 1 2 3.</_></rects>
      <tilted>0</tilted></_>
    <_>
      <rects>
        <_>
          6 8 4 4 -1.</_>
        <_>
          6 8 2 2 2.</_>
        <_>
          8 10 2 2 2.</_></rects>
      <tilted>0</tilted></_>
    <_>
      <rects>
        <_>
          6 8 4 3 -1.</_>
        <_>
          8 8 2 3 2.</_></rects>
      <tilted>0</tilted></_>
    <_>
      <rects>
        <_>
          6 8 2 6 -1.</_>
        <_>
          6 11 2 3 2.</_></rects>
      <tilted>0</tilted></_>
    <_>
      <rects>
        <_>
          6 8 9 3 -1.</_>
        <_>
          9 8 3 3 3.</_></rects>
      <tilted>0</tilted></_>
    <_>
      <rects>
        <_>
          6 8 6 4 -1.</_>
        <_>
          6 10 6 2 2.</_></rects>
      <tilted>0</tilted></_>
    <_>
      <rects>
        <_>
          6 8 9 4 -1.</_>
        <_>
          6 10 9 2 2.</_></rects>
      <tilted>0</tilted></_>
    <_>
      <rects>
        <_>
          6 9 3 2 -1.</_>
        <_>
          7 9 1 2 3.</_></rects>
      <tilted>0</tilted></_>
    <_>
      <rects>
        <_>
          6 9 4 1 -1.</_>
        <_>
          8 9 2 1 2.</_></rects>
      <tilted>0</tilted></_>
    <_>
      <rects>
        <_>
          6 9 9 6 -1.</_>
        <_>
          9 9 3 6 3.</_></rects>
      <tilted>0</tilted></_>
    <_>
      <rects>
        <_>
          6 10 6 3 -1.</_>
        <_>
          9 10 3 3 2.</_></rects>
      <tilted>0</tilted></_>
    <_>
      <rects>
        <_>
          6 10 10 10 -1.</_>
        <_>
          6 15 10 5 2.</_></rects>
      <tilted>0</tilted></_>
    <_>
      <rects>
        <_>
          6 13 9 6 -1.</_>
        <_>
          6 16 9 3 2.</_></rects>
      <tilted>0</tilted></_>
    <_>
      <rects>
        <_>
          7 0 7 6 -1.</_>
        <_>
          7 3 7 3 2.</_></rects>
      <tilted>0</tilted></_>
    <_>
      <rects>
        <_>
          7 0 9 8 -1.</_>
        <_>
          7 4 9 4 2.</_></rects>
      <tilted>0</tilted></_>
    <_>
      <rects>
        <_>
          7 0 10 10 -1.</_>
        <_>
          7 5 10 5 2.</_></rects>
      <tilted>0</tilted></_>
    <_>
      <rects>
        <_>
          7 1 5 8 -1.</_>
        <_>
          7 5 5 4 2.</_></rects>
      <tilted>0</tilted></_>
    <_>
      <rects>
        <_>
          7 3 6 8 -1.</_>
        <_>
          9 3 2 8 3.</_></rects>
      <tilted>0</tilted></_>
    <_>
      <rects>
        <_>
          7 3 5 6 -1.</_>
        <_>
          7 6 5 3 2.</_></rects>
      <tilted>0</tilted></_>
    <_>
      <rects>
        <_>
          7 4 3 6 -1.</_>
        <_>
          7 6 3 2 3.</_></rects>
      <tilted>0</tilted></_>
    <_>
      <rects>
        <_>
          7 4 6 12 -1.</_>
        <_>
          7 4 3 6 2.</_>
        <_>
          10 10 3 6 2.</_></rects>
      <tilted>0</tilted></_>
    <_>
      <rects>
        <_>
          7 4 7 10 -1.</_>
        <_>
          7 9 7 5 2.</_></rects>
      <tilted>0</tilted></_>
    <_>
      <rects>
        <_>
          7 5 2 2 -1.</_>
        <_>
          7 5 1 1 2.</_>
        <_>
          8 6 1 1 2.</_></rects>
      <tilted>0</tilted></_>
    <_>
      <rects>
        <_>
          7 5 4 4 -1.</_>
        <_>
          9 5 2 4 2.</_></rects>
      <tilted>0</tilted></_>
    <_>
      <rects>
        <_>
          7 5 6 2 -1.</_>
        <_>
          10 5 3 2 2.</_></rects>
      <tilted>0</tilted></_>
    <_>
      <rects>
        <_>
          7 5 7 4 -1.</_>
        <_>
          7 7 7 2 2.</_></rects>
      <tilted>0</tilted></_>
    <_>
      <rects>
        <_>
          7 6 2 1 -1.</_>
        <_>
          8 6 1 1 2.</_></rects>
      <tilted>0</tilted></_>
    <_>
      <rects>
        <_>
          7 6 2 2 -1.</_>
        <_>
          7 6 1 1 2.</_>
        <_>
          8 7 1 1 2.</_></rects>
      <tilted>0</tilted></_>
    <_>
      <rects>
        <_>
          7 6 2 4 -1.</_>
        <_>
          7 6 1 2 2.</_>
        <_>
          8 8 1 2 2.</_></rects>
      <tilted>0</tilted></_>
    <_>
      <rects>
        <_>
          7 6 4 3 -1.</_>
        <_>
          9 6 2 3 2.</_></rects>
      <tilted>0</tilted></_>
    <_>
      <rects>
        <_>
          7 6 2 8 -1.</_>
        <_>
          7 10 2 4 2.</_></rects>
      <tilted>0</tilted></_>
    <_>
      <rects>
        <_>
          7 6 9 3 -1.</_>
        <_>
          10 6 3 3 3.</_></rects>
      <tilted>0</tilted></_>
    <_>
      <rects>
        <_>
          7 6 6 6 -1.</_>
        <_>
          7 6 3 3 2.</_>
        <_>
          10 9 3 3 2.</_></rects>
      <tilted>0</tilted></_>
    <_>
      <rects>
        <_>
          7 7 2 2 -1.</_>
        <_>
          7 7 1 1 2.</_>
        <_>
          8 8 1 1 2.</_></rects>
      <tilted>0</tilted></_>
    <_>
      <rects>
        <_>
          7 7 3 3 -1.</_>
        <_>
          8 7 1 3 3.</_></rects>
      <tilted>0</tilted></_>
    <_>
      <rects>
        <_>
          7 7 2 4 -1.</_>
        <_>
          7 9 2 2 2.</_></rects>
      <tilted>0</tilted></_>
    <_>
      <rects>
        <_>
          7 7 2 6 -1.</_>
        <_>
          7 9 2 2 3.</_></rects>
      <tilted>0</tilted></_>
    <_>
      <rects>
        <_>
          7 7 9 4 -1.</_>
        <_>
          10 7 3 4 3.</_></rects>
      <tilted>0</tilted></_>
    <_>
      <rects>
        <_>
          7 7 5 6 -1.</_>
        <_>
          7 9 5 2 3.</_></rects>
      <tilted>0</tilted></_>
    <_>
      <rects>
        <_>
          7 7 6 8 -1.</_>
        <_>
          7 11 6 4 2.</_></rects>
      <tilted>0</tilted></_>
    <_>
      <rects>
        <_>
          7 8 3 1 -1.</_>
        <_>
          8 8 1 1 3.</_></rects>
      <tilted>0</tilted></_>
    <_>
      <rects>
        <_>
          7 8 2 2 -1.</_>
        <_>
          8 8 1 2 2.</_></rects>
      <tilted>0</tilted></_>
    <_>
      <rects>
        <_>
          7 8 3 2 -1.</_>
        <_>
          8 8 1 2 3.</_></rects>
      <tilted>0</tilted></_>
    <_>
      <rects>
        <_>
          7 8 3 3 -1.</_>
        <_>
          8 8 1 3 3.</_></rects>
      <tilted>0</tilted></_>
    <_>
      <rects>
        <_>
          7 8 2 8 -1.</_>
        <_>
          7 8 1 4 2.</_>
        <_>
          8 12 1 4 2.</_></rects>
      <tilted>0</tilted></_>
    <_>
      <rects>
        <_>
          7 8 2 2 -1.</_>
        <_>
          7 9 2 1 2.</_></rects>
      <tilted>0</tilted></_>
    <_>
      <rects>
        <_>
          7 8 2 4 -1.</_>
        <_>
          7 10 2 2 2.</_></rects>
      <tilted>0</tilted></_>
    <_>
      <rects>
        <_>
          7 8 2 6 -1.</_>
        <_>
          7 11 2 3 2.</_></rects>
      <tilted>0</tilted></_>
    <_>
      <rects>
        <_>
          7 8 9 4 -1.</_>
        <_>
          7 10 9 2 2.</_></rects>
      <tilted>0</tilted></_>
    <_>
      <rects>
        <_>
          7 9 3 1 -1.</_>
        <_>
          8 9 1 1 3.</_></rects>
      <tilted>0</tilted></_>
    <_>
      <rects>
        <_>
          7 9 3 2 -1.</_>
        <_>
          8 9 1 2 3.</_></rects>
      <tilted>0</tilted></_>
    <_>
      <rects>
        <_>
          7 9 2 2 -1.</_>
        <_>
          7 10 2 1 2.</_></rects>
      <tilted>0</tilted></_>
    <_>
      <rects>
        <_>
          7 9 2 4 -1.</_>
        <_>
          7 11 2 2 2.</_></rects>
      <tilted>0</tilted></_>
    <_>
      <rects>
        <_>
          7 9 8 2 -1.</_>
        <_>
          11 9 4 2 2.</_></rects>
      <tilted>0</tilted></_>
    <_>
      <rects>
        <_>
          7 10 3 1 -1.</_>
        <_>
          8 10 1 1 3.</_></rects>
      <tilted>0</tilted></_>
    <_>
      <rects>
        <_>
          7 10 3 2 -1.</_>
        <_>
          8 10 1 2 3.</_></rects>
      <tilted>0</tilted></_>
    <_>
      <rects>
        <_>
          7 11 2 2 -1.</_>
        <_>
          7 11 1 1 2.</_>
        <_>
          8 12 1 1 2.</_></rects>
      <tilted>0</tilted></_>
    <_>
      <rects>
        <_>
          7 11 7 8 -1.</_>
        <_>
          7 15 7 4 2.</_></rects>
      <tilted>0</tilted></_>
    <_>
      <rects>
        <_>
          7 12 3 1 -1.</_>
        <_>
          8 12 1 1 3.</_></rects>
      <tilted>0</tilted></_>
    <_>
      <rects>
        <_>
          7 12 7 8 -1.</_>
        <_>
          7 16 7 4 2.</_></rects>
      <tilted>0</tilted></_>
    <_>
      <rects>
        <_>
          7 13 4 2 -1.</_>
        <_>
          7 13 2 1 2.</_>
        <_>
          9 14 2 1 2.</_></rects>
      <tilted>0</tilted></_>
    <_>
      <rects>
        <_>
          7 13 5 6 -1.</_>
        <_>
          7 16 5 3 2.</_></rects>
      <tilted>0</tilted></_>
    <_>
      <rects>
        <_>
          7 13 6 6 -1.</_>
        <_>
          7 16 6 3 2.</_></rects>
      <tilted>0</tilted></_>
    <_>
      <rects>
        <_>
          7 13 8 6 -1.</_>
        <_>
          7 16 8 3 2.</_></rects>
      <tilted>0</tilted></_>
    <_>
      <rects>
        <_>
          8 3 8 4 -1.</_>
        <_>
          8 3 4 2 2.</_>
        <_>
          12 5 4 2 2.</_></rects>
      <tilted>0</tilted></_>
    <_>
      <rects>
        <_>
          8 3 4 12 -1.</_>
        <_>
          8 9 4 6 2.</_></rects>
      <tilted>0</tilted></_>
    <_>
      <rects>
        <_>
          8 4 6 9 -1.</_>
        <_>
          10 4 2 9 3.</_></rects>
      <tilted>0</tilted></_>
    <_>
      <rects>
        <_>
          8 4 3 4 -1.</_>
        <_>
          8 6 3 2 2.</_></rects>
      <tilted>0</tilted></_>
    <_>
      <rects>
        <_>
          8 4 6 10 -1.</_>
        <_>
          8 4 3 5 2.</_>
        <_>
          11 9 3 5 2.</_></rects>
      <tilted>0</tilted></_>
    <_>
      <rects>
        <_>
          8 4 6 12 -1.</_>
        <_>
          8 8 6 4 3.</_></rects>
      <tilted>0</tilted></_>
    <_>
      <rects>
        <_>
          8 4 12 5 -1.</_>
        <_>
          14 4 6 5 2.</_></rects>
      <tilted>0</tilted></_>
    <_>
      <rects>
        <_>
          8 4 7 4 -1.</_>
        <_>
          8 6 7 2 2.</_></rects>
      <tilted>0</tilted></_>
    <_>
      <rects>
        <_>
          8 5 2 6 -1.</_>
        <_>
          8 5 1 3 2.</_>
        <_>
          9 8 1 3 2.</_></rects>
      <tilted>0</tilted></_>
    <_>
      <rects>
        <_>
          8 5 6 1 -1.</_>
        <_>
          11 5 3 1 2.</_></rects>
      <tilted>0</tilted></_>
    <_>
      <rects>
        <_>
          8 5 6 2 -1.</_>
        <_>
          11 5 3 2 2.</_></rects>
      <tilted>0</tilted></_>
    <_>
      <rects>
        <_>
          8 5 3 6 -1.</_>
        <_>
          8 8 3 3 2.</_></rects>
      <tilted>0</tilted></_>
    <_>
      <rects>
        <_>
          8 6 2 2 -1.</_>
        <_>
          8 6 1 1 2.</_>
        <_>
          9 7 1 1 2.</_></rects>
      <tilted>0</tilted></_>
    <_>
      <rects>
        <_>
          8 6 6 3 -1.</_>
        <_>
          10 6 2 3 3.</_></rects>
      <tilted>0</tilted></_>
    <_>
      <rects>
        <_>
          8 6 7 9 -1.</_>
        <_>
          8 9 7 3 3.</_></rects>
      <tilted>0</tilted></_>
    <_>
      <rects>
        <_>
          8 6 8 9 -1.</_>
        <_>
          8 9 8 3 3.</_></rects>
      <tilted>0</tilted></_>
    <_>
      <rects>
        <_>
          8 7 2 2 -1.</_>
        <_>
          8 7 1 1 2.</_>
        <_>
          9 8 1 1 2.</_></rects>
      <tilted>0</tilted></_>
    <_>
      <rects>
        <_>
          8 7 2 4 -1.</_>
        <_>
          8 7 1 2 2.</_>
        <_>
          9 9 1 2 2.</_></rects>
      <tilted>0</tilted></_>
    <_>
      <rects>
        <_>
          8 7 3 6 -1.</_>
        <_>
          8 9 3 2 3.</_></rects>
      <tilted>0</tilted></_>
    <_>
      <rects>
        <_>
          8 7 5 3 -1.</_>
        <_>
          8 8 5 1 3.</_></rects>
      <tilted>0</tilted></_>
    <_>
      <rects>
        <_>
          8 8 2 1 -1.</_>
        <_>
          9 8 1 1 2.</_></rects>
      <tilted>0</tilted></_>
    <_>
      <rects>
        <_>
          8 8 3 4 -1.</_>
        <_>
          9 8 1 4 3.</_></rects>
      <tilted>0</tilted></_>
    <_>
      <rects>
        <_>
          8 8 6 3 -1.</_>
        <_>
          8 9 6 1 3.</_></rects>
      <tilted>0</tilted></_>
    <_>
      <rects>
        <_>
          8 9 3 2 -1.</_>
        <_>
          9 9 1 2 3.</_></rects>
      <tilted>0</tilted></_>
    <_>
      <rects>
        <_>
          8 9 2 4 -1.</_>
        <_>
          8 9 1 2 2.</_>
        <_>
          9 11 1 2 2.</_></rects>
      <tilted>0</tilted></_>
    <_>
      <rects>
        <_>
          8 9 3 6 -1.</_>
        <_>
          8 12 3 3 2.</_></rects>
      <tilted>0</tilted></_>
    <_>
      <rects>
        <_>
          8 9 8 1 -1.</_>
        <_>
          12 9 4 1 2.</_></rects>
      <tilted>0</tilted></_>
    <_>
      <rects>
        <_>
          8 9 8 2 -1.</_>
        <_>
          12 9 4 2 2.</_></rects>
      <tilted>0</tilted></_>
    <_>
      <rects>
        <_>
          8 9 6 6 -1.</_>
        <_>
          8 12 6 3 2.</_></rects>
      <tilted>0</tilted></_>
    <_>
      <rects>
        <_>
          8 10 3 1 -1.</_>
        <_>
          9 10 1 1 3.</_></rects>
      <tilted>0</tilted></_>
    <_>
      <rects>
        <_>
          8 10 2 2 -1.</_>
        <_>
          9 10 1 2 2.</_></rects>
      <tilted>0</tilted></_>
    <_>
      <rects>
        <_>
          8 10 3 4 -1.</_>
        <_>
          8 12 3 2 2.</_></rects>
      <tilted>0</tilted></_>
    <_>
      <rects>
        <_>
          8 10 5 3 -1.</_>
        <_>
          8 11 5 1 3.</_></rects>
      <tilted>0</tilted></_>
    <_>
      <rects>
        <_>
          8 11 6 2 -1.</_>
        <_>
          10 11 2 2 3.</_></rects>
      <tilted>0</tilted></_>
    <_>
      <rects>
        <_>
          8 12 1 2 -1.</_>
        <_>
          8 13 1 1 2.</_></rects>
      <tilted>0</tilted></_>
    <_>
      <rects>
        <_>
          8 13 3 1 -1.</_>
        <_>
          9 13 1 1 3.</_></rects>
      <tilted>0</tilted></_>
    <_>
      <rects>
        <_>
          8 13 5 2 -1.</_>
        <_>
          8 14 5 1 2.</_></rects>
      <tilted>0</tilted></_>
    <_>
      <rects>
        <_>
          8 14 4 2 -1.</_>
        <_>
          8 15 4 1 2.</_></rects>
      <tilted>0</tilted></_>
    <_>
      <rects>
        <_>
          8 14 4 4 -1.</_>
        <_>
          8 16 4 2 2.</_></rects>
      <tilted>0</tilted></_>
    <_>
      <rects>
        <_>
          9 0 4 6 -1.</_>
        <_>
          9 3 4 3 2.</_></rects>
      <tilted>0</tilted></_>
    <_>
      <rects>
        <_>
          9 3 2 5 -1.</_>
        <_>
          10 3 1 5 2.</_></rects>
      <tilted>0</tilted></_>
    <_>
      <rects>
        <_>
          9 3 3 5 -1.</_>
        <_>
          10 3 1 5 3.</_></rects>
      <tilted>0</tilted></_>
    <_>
      <rects>
        <_>
          9 4 1 2 -1.</_>
        <_>
          9 5 1 1 2.</_></rects>
      <tilted>0</tilted></_>
    <_>
      <rects>
        <_>
          9 4 4 4 -1.</_>
        <_>
          9 6 4 2 2.</_></rects>
      <tilted>0</tilted></_>
    <_>
      <rects>
        <_>
          9 5 1 10 -1.</_>
        <_>
          9 10 1 5 2.</_></rects>
      <tilted>0</tilted></_>
    <_>
      <rects>
        <_>
          9 5 3 9 -1.</_>
        <_>
          9 8 3 3 3.</_></rects>
      <tilted>0</tilted></_>
    <_>
      <rects>
        <_>
          9 5 5 4 -1.</_>
        <_>
          9 7 5 2 2.</_></rects>
      <tilted>0</tilted></_>
    <_>
      <rects>
        <_>
          9 6 1 3 -1.</_>
        <_>
          9 7 1 1 3.</_></rects>
      <tilted>0</tilted></_>
    <_>
      <rects>
        <_>
          9 6 2 2 -1.</_>
        <_>
          9 6 1 1 2.</_>
        <_>
          10 7 1 1 2.</_></rects>
      <tilted>0</tilted></_>
    <_>
      <rects>
        <_>
          9 7 2 2 -1.</_>
        <_>
          9 7 1 1 2.</_>
        <_>
          10 8 1 1 2.</_></rects>
      <tilted>0</tilted></_>
    <_>
      <rects>
        <_>
          9 7 4 2 -1.</_>
        <_>
          9 7 2 1 2.</_>
        <_>
          11 8 2 1 2.</_></rects>
      <tilted>0</tilted></_>
    <_>
      <rects>
        <_>
          9 7 2 6 -1.</_>
        <_>
          9 9 2 2 3.</_></rects>
      <tilted>0</tilted></_>
    <_>
      <rects>
        <_>
          9 7 4 10 -1.</_>
        <_>
          9 7 2 5 2.</_>
        <_>
          11 12 2 5 2.</_></rects>
      <tilted>0</tilted></_>
    <_>
      <rects>
        <_>
          9 8 1 2 -1.</_>
        <_>
          9 9 1 1 2.</_></rects>
      <tilted>0</tilted></_>
    <_>
      <rects>
        <_>
          9 8 6 8 -1.</_>
        <_>
          11 8 2 8 3.</_></rects>
      <tilted>0</tilted></_>
    <_>
      <rects>
        <_>
          9 9 2 2 -1.</_>
        <_>
          10 9 1 2 2.</_></rects>
      <tilted>0</tilted></_>
    <_>
      <rects>
        <_>
          9 9 3 2 -1.</_>
        <_>
          10 9 1 2 3.</_></rects>
      <tilted>0</tilted></_>
    <_>
      <rects>
        <_>
          9 9 4 8 -1.</_>
        <_>
          11 9 2 8 2.</_></rects>
      <tilted>0</tilted></_>
    <_>
      <rects>
        <_>
          9 9 6 1 -1.</_>
        <_>
          12 9 3 1 2.</_></rects>
      <tilted>0</tilted></_>
    <_>
      <rects>
        <_>
          9 9 6 3 -1.</_>
        <_>
          12 9 3 3 2.</_></rects>
      <tilted>0</tilted></_>
    <_>
      <rects>
        <_>
          9 9 6 5 -1.</_>
        <_>
          12 9 3 5 2.</_></rects>
      <tilted>0</tilted></_>
    <_>
      <rects>
        <_>
          9 10 4 2 -1.</_>
        <_>
          9 10 2 1 2.</_>
        <_>
          11 11 2 1 2.</_></rects>
      <tilted>0</tilted></_>
    <_>
      <rects>
        <_>
          9 10 4 3 -1.</_>
        <_>
          9 11 4 1 3.</_></rects>
      <tilted>0</tilted></_>
    <_>
      <rects>
        <_>
          9 11 3 2 -1.</_>
        <_>
          10 11 1 2 3.</_></rects>
      <tilted>0</tilted></_>
    <_>
      <rects>
        <_>
          9 11 10 4 -1.</_>
        <_>
          14 11 5 4 2.</_></rects>
      <tilted>0</tilted></_>
    <_>
      <rects>
        <_>
          9 13 1 2 -1.</_>
        <_>
          9 14 1 1 2.</_></rects>
      <tilted>0</tilted></_>
    <_>
      <rects>
        <_>
          9 14 3 2 -1.</_>
        <_>
          9 15 3 1 2.</_></rects>
      <tilted>0</tilted></_>
    <_>
      <rects>
        <_>
          10 3 10 12 -1.</_>
        <_>
          15 3 5 12 2.</_></rects>
      <tilted>0</tilted></_>
    <_>
      <rects>
        <_>
          10 4 1 2 -1.</_>
        <_>
          10 5 1 1 2.</_></rects>
      <tilted>0</tilted></_>
    <_>
      <rects>
        <_>
          10 4 3 2 -1.</_>
        <_>
          11 4 1 2 3.</_></rects>
      <tilted>0</tilted></_>
    <_>
      <rects>
        <_>
          10 4 10 12 -1.</_>
        <_>
          15 4 5 12 2.</_></rects>
      <tilted>0</tilted></_>
    <_>
      <rects>
        <_>
          10 5 4 4 -1.</_>
        <_>
          10 7 4 2 2.</_></rects>
      <tilted>0</tilted></_>
    <_>
      <rects>
        <_>
          10 5 10 2 -1.</_>
        <_>
          15 5 5 2 2.</_></rects>
      <tilted>0</tilted></_>
    <_>
      <rects>
        <_>
          10 6 1 3 -1.</_>
        <_>
          10 7 1 1 3.</_></rects>
      <tilted>0</tilted></_>
    <_>
      <rects>
        <_>
          10 6 3 2 -1.</_>
        <_>
          11 6 1 2 3.</_></rects>
      <tilted>0</tilted></_>
    <_>
      <rects>
        <_>
          10 6 2 3 -1.</_>
        <_>
          10 7 2 1 3.</_></rects>
      <tilted>0</tilted></_>
    <_>
      <rects>
        <_>
          10 7 1 3 -1.</_>
        <_>
          10 8 1 1 3.</_></rects>
      <tilted>0</tilted></_>
    <_>
      <rects>
        <_>
          10 7 2 2 -1.</_>
        <_>
          10 8 2 1 2.</_></rects>
      <tilted>0</tilted></_>
    <_>
      <rects>
        <_>
          10 7 2 3 -1.</_>
        <_>
          10 8 2 1 3.</_></rects>
      <tilted>0</tilted></_>
    <_>
      <rects>
        <_>
          10 7 3 2 -1.</_>
        <_>
          10 8 3 1 2.</_></rects>
      <tilted>0</tilted></_>
    <_>
      <rects>
        <_>
          10 7 6 4 -1.</_>
        <_>
          13 7 3 4 2.</_></rects>
      <tilted>0</tilted></_>
    <_>
      <rects>
        <_>
          10 8 6 2 -1.</_>
        <_>
          10 8 3 1 2.</_>
        <_>
          13 9 3 1 2.</_></rects>
      <tilted>0</tilted></_>
    <_>
      <rects>
        <_>
          10 9 2 2 -1.</_>
        <_>
          10 9 1 1 2.</_>
        <_>
          11 10 1 1 2.</_></rects>
      <tilted>0</tilted></_>
    <_>
      <rects>
        <_>
          10 9 3 2 -1.</_>
        <_>
          11 9 1 2 3.</_></rects>
      <tilted>0</tilted></_>
    <_>
      <rects>
        <_>
          10 9 2 4 -1.</_>
        <_>
          10 9 1 2 2.</_>
        <_>
          11 11 1 2 2.</_></rects>
      <tilted>0</tilted></_>
    <_>
      <rects>
        <_>
          10 9 4 4 -1.</_>
        <_>
          10 9 2 2 2.</_>
        <_>
          12 11 2 2 2.</_></rects>
      <tilted>0</tilted></_>
    <_>
      <rects>
        <_>
          10 9 3 6 -1.</_>
        <_>
          10 12 3 3 2.</_></rects>
      <tilted>0</tilted></_>
    <_>
      <rects>
        <_>
          10 10 6 3 -1.</_>
        <_>
          13 10 3 3 2.</_></rects>
      <tilted>0</tilted></_>
    <_>
      <rects>
        <_>
          10 10 3 6 -1.</_>
        <_>
          10 13 3 3 2.</_></rects>
      <tilted>0</tilted></_>
    <_>
      <rects>
        <_>
          10 11 2 2 -1.</_>
        <_>
          10 12 2 1 2.</_></rects>
      <tilted>0</tilted></_>
    <_>
      <rects>
        <_>
          10 11 3 3 -1.</_>
        <_>
          10 12 3 1 3.</_></rects>
      <tilted>0</tilted></_>
    <_>
      <rects>
        <_>
          10 12 2 3 -1.</_>
        <_>
          10 13 2 1 3.</_></rects>
      <tilted>0</tilted></_>
    <_>
      <rects>
        <_>
          11 4 1 12 -1.</_>
        <_>
          11 10 1 6 2.</_></rects>
      <tilted>0</tilted></_>
    <_>
      <rects>
        <_>
          11 4 2 12 -1.</_>
        <_>
