<?xml version="1.0"?>
<opencv_storage>
<cascade>
  <stageType>BOOST</stageType>
  <featureType>HAAR</featureType>
  <height>20</height>
  <width>20</width>
  <stageParams>
    <boostType>GAB</boostType>
    <minHitRate>9.9500000476837158e-01</minHitRate>
    <maxFalseAlarm>5.0000000000000000e-01</maxFalseAlarm>
    <weightTrimRate>9.4999999999999996e-01</weightTrimRate>
    <maxDepth>1</maxDepth>
    <maxWeakCount>100</maxWeakCount></stageParams>
  <featureParams>
    <maxCatCount>0</maxCatCount>
    <featSize>1</featSize>
    <mode>BASIC</mode></featureParams>
  <stageNum>10</stageNum>
  <stages>
    <!-- stage 0 -->
    <_>
      <maxWeakCount>3</maxWeakCount>
      <stageThreshold>-9.3897908926010132e-01</stageThreshold>
      <weakClassifiers>
        <_>
          <internalNodes>
            0 -1 24 3.7041664123535156e-02</internalNodes>
          <leafValues>
            -7.8091108798980713e-01 8.2771897315979004e-01</leafValues></_>
        <_>
          <internalNodes>
            0 -1 68 -2.2187400609254837e-02</internalNodes>
          <leafValues>
            6.9698071479797363e-01 -7.4647837877273560e-01</leafValues></_>
        <_>
          <internalNodes>
            0 -1 74 7.9093165695667267e-03</internalNodes>
          <leafValues>
            -7.5300896167755127e-01 5.8841031789779663e-01</leafValues></_></weakClassifiers></_>
    <!-- stage 1 -->
    <_>
      <maxWeakCount>8</maxWeakCount>
      <stageThreshold>-1.5594408512115479e+00</stageThreshold>
      <weakClassifiers>
        <_>
          <internalNodes>
            0 -1 58 6.6207185387611389e-02</internalNodes>
          <leafValues>
            -6.1269146203994751e-01 7.4784278869628906e-01</leafValues></_>
        <_>
          <internalNodes>
            0 -1 23 3.4965813159942627e-02</internalNodes>
          <leafValues>
            -6.8559455871582031e-01 5.3033226728439331e-01</leafValues></_>
        <_>
          <internalNodes>
            0 -1 52 -8.9604745153337717e-04</internalNodes>
          <leafValues>
            3.0285710096359253e-01 -6.5102285146713257e-01</leafValues></_>
        <_>
          <internalNodes>
            0 -1 101 -4.6826004981994629e-03</internalNodes>
          <leafValues>
            5.5532956123352051e-01 -3.6889833211898804e-01</leafValues></_>
        <_>
          <internalNodes>
            0 -1 56 5.9774473309516907e-02</internalNodes>
          <leafValues>
            -2.3274850845336914e-01 8.7109559774398804e-01</leafValues></_>
        <_>
          <internalNodes>
            0 -1 72 7.7879293821752071e-03</internalNodes>
          <leafValues>
            -5.5083715915679932e-01 4.0127313137054443e-01</leafValues></_>
        <_>
          <internalNodes>
            0 -1 14 -8.0187484622001648e-02</internalNodes>
          <leafValues>
            7.6617532968521118e-01 -2.1376663446426392e-01</leafValues></_>
        <_>
          <internalNodes>
            0 -1 6 2.4962526559829712e-01</internalNodes>
          <leafValues>
            -1.7770324647426605e-01 8.0123382806777954e-01</leafValues></_></weakClassifiers></_>
    <!-- stage 2 -->
    <_>
      <maxWeakCount>8</maxWeakCount>
      <stageThreshold>-9.8311460018157959e-01</stageThreshold>
      <weakClassifiers>
        <_>
          <internalNodes>
            0 -1 28 4.1039705276489258e-02</internalNodes>
          <leafValues>
            -6.3942307233810425e-01 7.0664209127426147e-01</leafValues></_>
        <_>
          <internalNodes>
            0 -1 74 9.9872844293713570e-03</internalNodes>
          <leafValues>
            -6.6393142938613892e-01 4.3974289298057556e-01</leafValues></_>
        <_>
          <internalNodes>
            0 -1 68 -2.3104652762413025e-02</internalNodes>
          <leafValues>
            3.9037549495697021e-01 -7.0194292068481445e-01</leafValues></_>
        <_>
          <internalNodes>
            0 -1 47 5.0714984536170959e-03</internalNodes>
          <leafValues>
            -3.4935086965560913e-01 6.2550854682922363e-01</leafValues></_>
        <_>
          <internalNodes>
            0 -1 98 2.6242621243000031e-03</internalNodes>
          <leafValues>
            -2.9851722717285156e-01 7.1506983041763306e-01</leafValues></_>
        <_>
          <internalNodes>
            0 -1 90 8.0697774887084961e-02</internalNodes>
          <leafValues>
            -2.0848515629768372e-01 8.0565553903579712e-01</leafValues></_>
        <_>
          <internalNodes>
            0 -1 5 9.4341546297073364e-02</internalNodes>
          <leafValues>
            -2.8994619846343994e-01 6.1708068847656250e-01</leafValues></_>
        <_>
          <internalNodes>
            0 -1 36 -4.6148344874382019e-02</internalNodes>
          <leafValues>
            -8.5458523035049438e-01 1.7948214709758759e-01</leafValues></_></weakClassifiers></_>
    <!-- stage 3 -->
    <_>
      <maxWeakCount>7</maxWeakCount>
      <stageThreshold>-1.0738646984100342e+00</stageThreshold>
      <weakClassifiers>
        <_>
          <internalNodes>
            0 -1 24 3.9371922612190247e-02</internalNodes>
          <leafValues>
            -7.3066663742065430e-01 6.8800002336502075e-01</leafValues></_>
        <_>
          <internalNodes>
            0 -1 93 -3.0933780362829566e-04</internalNodes>
          <leafValues>
            5.8044195175170898e-01 -3.9068642258644104e-01</leafValues></_>
        <_>
          <internalNodes>
            0 -1 102 7.0691956207156181e-03</internalNodes>
          <leafValues>
            -2.6426905393600464e-01 8.0503958463668823e-01</leafValues></_>
        <_>
          <internalNodes>
            0 -1 49 -2.7588421944528818e-03</internalNodes>
          <leafValues>
            3.2699748873710632e-01 -7.3760980367660522e-01</leafValues></_>
        <_>
          <internalNodes>
            0 -1 65 -3.7131034769117832e-03</internalNodes>
          <leafValues>
            7.9721707105636597e-01 -3.2060927152633667e-01</leafValues></_>
        <_>
          <internalNodes>
            0 -1 3 -5.0781477242708206e-02</internalNodes>
          <leafValues>
            8.8241124153137207e-01 -1.3854852318763733e-01</leafValues></_>
        <_>
          <internalNodes>
            0 -1 42 2.1228075027465820e-02</internalNodes>
          <leafValues>
            -4.3126752972602844e-01 4.4391772150993347e-01</leafValues></_></weakClassifiers></_>
    <!-- stage 4 -->
    <_>
      <maxWeakCount>11</maxWeakCount>
      <stageThreshold>-1.3483945131301880e+00</stageThreshold>
      <weakClassifiers>
        <_>
          <internalNodes>
            0 -1 45 -1.7855826765298843e-02</internalNodes>
          <leafValues>
            5.3852295875549316e-01 -7.0505052804946899e-01</leafValues></_>
        <_>
          <internalNodes>
            0 -1 62 2.3260912857949734e-03</internalNodes>
          <leafValues>
            -2.7942755818367004e-01 7.5825113058090210e-01</leafValues></_>
        <_>
          <internalNodes>
            0 -1 70 8.2178376615047455e-03</internalNodes>
          <leafValues>
            -4.6960201859474182e-01 4.3166840076446533e-01</leafValues></_>
        <_>
          <internalNodes>
            0 -1 101 -7.2534801438450813e-03</internalNodes>
          <leafValues>
            5.8843433856964111e-01 -2.5284048914909363e-01</leafValues></_>
        <_>
          <internalNodes>
            0 -1 51 4.5507578179240227e-03</internalNodes>
          <leafValues>
            -3.2753285765647888e-01 6.0600298643112183e-01</leafValues></_>
        <_>
          <internalNodes>
            0 -1 8 -2.3261713981628418e-01</internalNodes>
          <leafValues>
            8.9515411853790283e-01 -1.3412372767925262e-01</leafValues></_>
        <_>
          <internalNodes>
            0 -1 40 3.0535133555531502e-03</internalNodes>
          <leafValues>
            -6.5206295251846313e-01 2.6958408951759338e-01</leafValues></_>
        <_>
          <internalNodes>
            0 -1 26 3.1681835651397705e-02</internalNodes>
          <leafValues>
            -6.1063235998153687e-01 2.1310679614543915e-01</leafValues></_>
        <_>
          <internalNodes>
            0 -1 17 1.2885859236121178e-02</internalNodes>
          <leafValues>
            1.6545945405960083e-01 -7.6322031021118164e-01</leafValues></_>
        <_>
          <internalNodes>
            0 -1 62 -2.0219213329255581e-03</internalNodes>
          <leafValues>
            6.8591660261154175e-01 -2.0751270651817322e-01</leafValues></_>
        <_>
          <internalNodes>
            0 -1 13 2.5933757424354553e-02</internalNodes>
          <leafValues>
            -1.4792008697986603e-01 6.1296278238296509e-01</leafValues></_></weakClassifiers></_>
    <!-- stage 5 -->
    <_>
      <maxWeakCount>11</maxWeakCount>
      <stageThreshold>-7.9590344429016113e-01</stageThreshold>
      <weakClassifiers>
        <_>
          <internalNodes>
            0 -1 38 1.3108439743518829e-02</internalNodes>
          <leafValues>
            -5.1462996006011963e-01 5.3699874877929688e-01</leafValues></_>
        <_>
          <internalNodes>
            0 -1 78 7.4210632592439651e-03</internalNodes>
          <leafValues>
            -2.9064950346946716e-01 5.9340584278106689e-01</leafValues></_>
        <_>
          <internalNodes>
            0 -1 85 -1.4348024502396584e-02</internalNodes>
          <leafValues>
            2.7095189690589905e-01 -6.6595709323883057e-01</leafValues></_>
        <_>
          <internalNodes>
            0 -1 80 1.0151320695877075e-01</internalNodes>
          <leafValues>
            -2.2065992653369904e-01 7.2118407487869263e-01</leafValues></_>
        <_>
          <internalNodes>
            0 -1 9 2.7872550487518311e-01</internalNodes>
          <leafValues>
            -2.7035054564476013e-01 6.2779831886291504e-01</leafValues></_>
        <_>
          <internalNodes>
            0 -1 44 6.9140759296715260e-04</internalNodes>
          <leafValues>
            -6.3712739944458008e-01 2.7367329597473145e-01</leafValues></_>
        <_>
          <internalNodes>
            0 -1 98 3.0762548558413982e-03</internalNodes>
          <leafValues>
            -2.6948681473731995e-01 5.7815182209014893e-01</leafValues></_>
        <_>
          <internalNodes>
            0 -1 39 5.3396588191390038e-03</internalNodes>
          <leafValues>
            -1.8945014476776123e-01 5.8057880401611328e-01</leafValues></_>
        <_>
          <internalNodes>
            0 -1 25 1.9377410411834717e-02</internalNodes>
          <leafValues>
            1.7644399404525757e-01 -7.0875251293182373e-01</leafValues></_>
        <_>
          <internalNodes>
            0 -1 94 3.1399279832839966e-03</internalNodes>
          <leafValues>
            -2.2935250401496887e-01 5.9585291147232056e-01</leafValues></_>
        <_>
          <internalNodes>
            0 -1 12 -7.2776377201080322e-02</internalNodes>
          <leafValues>
            4.6760678291320801e-01 -2.5817543268203735e-01</leafValues></_></weakClassifiers></_>
    <!-- stage 6 -->
    <_>
      <maxWeakCount>13</maxWeakCount>
      <stageThreshold>-9.4254398345947266e-01</stageThreshold>
      <weakClassifiers>
        <_>
          <internalNodes>
            0 -1 83 3.8236903492361307e-03</internalNodes>
          <leafValues>
            -9.6140347421169281e-02 7.2190475463867188e-01</leafValues></_>
        <_>
          <internalNodes>
            0 -1 87 -1.7423059791326523e-02</internalNodes>
          <leafValues>
            3.6690658330917358e-01 -5.1479846239089966e-01</leafValues></_>
        <_>
          <internalNodes>
            0 -1 69 2.7100590523332357e-03</internalNodes>
          <leafValues>
            -2.4727047979831696e-01 5.7245171070098877e-01</leafValues></_>
        <_>
          <internalNodes>
            0 -1 51 7.6525527983903885e-03</internalNodes>
          <leafValues>
            -2.0886591076850891e-01 6.1497074365615845e-01</leafValues></_>
        <_>
          <internalNodes>
            0 -1 32 1.1317624151706696e-01</internalNodes>
          <leafValues>
            -1.7906716465950012e-01 7.2264873981475830e-01</leafValues></_>
        <_>
          <internalNodes>
            0 -1 81 4.8144469037652016e-03</internalNodes>
          <leafValues>
            -7.6648175716400146e-01 1.5482987463474274e-01</leafValues></_>
        <_>
          <internalNodes>
            0 -1 48 2.6517964433878660e-03</internalNodes>
          <leafValues>
            1.5841527283191681e-01 -7.4784487485885620e-01</leafValues></_>
        <_>
          <internalNodes>
            0 -1 76 -1.7150109633803368e-03</internalNodes>
          <leafValues>
            1.5180180966854095e-01 -7.6356238126754761e-01</leafValues></_>
        <_>
          <internalNodes>
            0 -1 100 -6.8912288406863809e-04</internalNodes>
          <leafValues>
            3.6716669797897339e-01 -3.0462434887886047e-01</leafValues></_>
        <_>
          <internalNodes>
            0 -1 22 2.6153181679546833e-03</internalNodes>
          <leafValues>
            -6.4278608560562134e-01 1.7240101099014282e-01</leafValues></_>
        <_>
          <internalNodes>
            0 -1 18 -2.4078968912363052e-02</internalNodes>
          <leafValues>
            -9.3454092741012573e-01 1.0521747916936874e-01</leafValues></_>
        <_>
          <internalNodes>
            0 -1 89 1.1324940249323845e-02</internalNodes>
          <leafValues>
            1.1787728220224380e-01 -7.5000971555709839e-01</leafValues></_>
        <_>
          <internalNodes>
            0 -1 0 -2.4431465566158295e-01</internalNodes>
          <leafValues>
            7.7170479297637939e-01 -1.8371444940567017e-01</leafValues></_></weakClassifiers></_>
    <!-- stage 7 -->
    <_>
      <maxWeakCount>16</maxWeakCount>
      <stageThreshold>-8.8194090127944946e-01</stageThreshold>
      <weakClassifiers>
        <_>
          <internalNodes>
            0 -1 63 6.5708458423614502e-03</internalNodes>
          <leafValues>
            -4.9324324727058411e-01 5.3654485940933228e-01</leafValues></_>
        <_>
          <internalNodes>
            0 -1 62 2.4892366491258144e-03</internalNodes>
          <leafValues>
            -2.2241678833961487e-01 5.3841722011566162e-01</leafValues></_>
        <_>
          <internalNodes>
            0 -1 50 -2.1825961768627167e-02</internalNodes>
          <leafValues>
            -6.9593411684036255e-01 1.7418037354946136e-01</leafValues></_>
        <_>
          <internalNodes>
            0 -1 11 -1.2787455320358276e-01</internalNodes>
          <leafValues>
            7.5463694334030151e-01 -1.4644370973110199e-01</leafValues></_>
        <_>
          <internalNodes>
            0 -1 92 -4.2374208569526672e-03</internalNodes>
          <leafValues>
            5.6220006942749023e-01 -2.1675904095172882e-01</leafValues></_>
        <_>
          <internalNodes>
            0 -1 10 1.2542057037353516e-01</internalNodes>
          <leafValues>
            -1.6492906212806702e-01 6.4859998226165771e-01</leafValues></_>
        <_>
          <internalNodes>
            0 -1 20 -1.1533379554748535e-02</internalNodes>
          <leafValues>
            -7.7868050336837769e-01 1.2467572838068008e-01</leafValues></_>
        <_>
          <internalNodes>
            0 -1 84 3.2833386212587357e-03</internalNodes>
          <leafValues>
            -1.9707930088043213e-01 4.8742470145225525e-01</leafValues></_>
        <_>
          <internalNodes>
            0 -1 34 -8.6595579981803894e-02</internalNodes>
          <leafValues>
            5.9506112337112427e-01 -1.5301944315433502e-01</leafValues></_>
        <_>
          <internalNodes>
            0 -1 59 1.0162532329559326e-02</internalNodes>
          <leafValues>
            -4.8161980509757996e-01 2.2463175654411316e-01</leafValues></_>
        <_>
          <internalNodes>
            0 -1 77 -1.7320530023425817e-03</internalNodes>
          <leafValues>
            1.3720287382602692e-01 -6.3835740089416504e-01</leafValues></_>
        <_>
          <internalNodes>
            0 -1 57 -1.9912216812372208e-02</internalNodes>
          <leafValues>
            -6.3987278938293457e-01 1.3302581012248993e-01</leafValues></_>
        <_>
          <internalNodes>
            0 -1 61 -1.5781842172145844e-02</internalNodes>
          <leafValues>
            -7.1652632951736450e-01 1.0772895067930222e-01</leafValues></_>
        <_>
          <internalNodes>
            0 -1 53 5.4182521998882294e-03</internalNodes>
          <leafValues>
            -1.9890569150447845e-01 5.1585561037063599e-01</leafValues></_>
        <_>
          <internalNodes>
            0 -1 66 5.6568775326013565e-03</internalNodes>
          <leafValues>
            -4.3873503804206848e-01 2.2113406658172607e-01</leafValues></_>
        <_>
          <internalNodes>
            0 -1 99 5.6056622415781021e-03</internalNodes>
          <leafValues>
            -1.8478393554687500e-01 4.4814494252204895e-01</leafValues></_></weakClassifiers></_>
    <!-- stage 8 -->
    <_>
      <maxWeakCount>18</maxWeakCount>
      <stageThreshold>-9.4365674257278442e-01</stageThreshold>
      <weakClassifiers>
        <_>
          <internalNodes>
            0 -1 40 2.9144452419131994e-03</internalNodes>
          <leafValues>
            -6.0500001907348633e-01 4.7769230604171753e-01</leafValues></_>
        <_>
          <internalNodes>
            0 -1 41 -2.1420525445137173e-04</internalNodes>
          <leafValues>
            2.3784837126731873e-01 -6.9370353221893311e-01</leafValues></_>
        <_>
          <internalNodes>
            0 -1 86 -8.4773532580584288e-04</internalNodes>
          <leafValues>
            3.2691034674644470e-01 -4.2607071995735168e-01</leafValues></_>
        <_>
          <internalNodes>
            0 -1 71 -4.1018992662429810e-02</internalNodes>
          <leafValues>
            6.0386329889297485e-01 -1.6883414983749390e-01</leafValues></_>
        <_>
          <internalNodes>
            0 -1 35 6.1923496425151825e-02</internalNodes>
          <leafValues>
            -2.5230231881141663e-01 4.9577784538269043e-01</leafValues></_>
        <_>
          <internalNodes>
            0 -1 30 -2.1097015589475632e-02</internalNodes>
          <leafValues>
            -7.8081393241882324e-01 1.4767776429653168e-01</leafValues></_>
        <_>
          <internalNodes>
            0 -1 19 5.0643449649214745e-03</internalNodes>
          <leafValues>
            -1.8295484781265259e-01 5.9876364469528198e-01</leafValues></_>
        <_>
          <internalNodes>
            0 -1 31 4.9734646454453468e-03</internalNodes>
          <leafValues>
            -1.3275556266307831e-01 5.9036487340927124e-01</leafValues></_>
        <_>
          <internalNodes>
            0 -1 33 7.0729508996009827e-02</internalNodes>
          <leafValues>
            -1.4467711746692657e-01 5.8928132057189941e-01</leafValues></_>
        <_>
          <internalNodes>
            0 -1 67 6.1669200658798218e-04</internalNodes>
          <leafValues>
            1.0766147077083588e-01 -7.7610969543457031e-01</leafValues></_>
        <_>
          <internalNodes>
            0 -1 15 -3.6288734525442123e-02</internalNodes>
          <leafValues>
            -6.8055206537246704e-01 9.1157145798206329e-02</leafValues></_>
        <_>
          <internalNodes>
            0 -1 46 2.5196776259690523e-03</internalNodes>
          <leafValues>
            -2.0502401888370514e-01 3.8662350177764893e-01</leafValues></_>
        <_>
          <internalNodes>
            0 -1 75 -1.5298770740628242e-03</internalNodes>
          <leafValues>
            4.6574914455413818e-01 -1.7676353454589844e-01</leafValues></_>
        <_>
          <internalNodes>
            0 -1 96 -2.9210507869720459e-02</internalNodes>
          <leafValues>
            3.3303758502006531e-01 -2.2754208743572235e-01</leafValues></_>
        <_>
          <internalNodes>
            0 -1 4 -1.5394887328147888e-01</internalNodes>
          <leafValues>
            7.2674381732940674e-01 -1.1794364452362061e-01</leafValues></_>
        <_>
          <internalNodes>
            0 -1 55 -8.0388188362121582e-02</internalNodes>
          <leafValues>
            5.3437417745590210e-01 -1.3455480337142944e-01</leafValues></_>
        <_>
          <internalNodes>
            0 -1 60 -4.6734437346458435e-03</internalNodes>
          <leafValues>
            4.3175625801086426e-01 -1.6480316221714020e-01</leafValues></_>
        <_>
          <internalNodes>
            0 -1 73 1.5395853668451309e-02</internalNodes>
          <leafValues>
            -5.2996355295181274e-01 1.7948007583618164e-01</leafValues></_></weakClassifiers></_>
    <!-- stage 9 -->
    <_>
      <maxWeakCount>20</maxWeakCount>
      <stageThreshold>-8.9001661539077759e-01</stageThreshold>
      <weakClassifiers>
        <_>
          <internalNodes>
            0 -1 62 2.6007560081779957e-03</internalNodes>
          <leafValues>
            6.1564058065414429e-02 7.4269008636474609e-01</leafValues></_>
        <_>
          <internalNodes>
            0 -1 91 1.1353847803547978e-03</internalNodes>
          <leafValues>
            -1.8304567039012909e-01 5.1474821567535400e-01</leafValues></_>
        <_>
          <internalNodes>
            0 -1 95 1.1374625563621521e-01</internalNodes>
          <leafValues>
            -1.2880992889404297e-01 7.1842408180236816e-01</leafValues></_>
        <_>
          <internalNodes>
            0 -1 79 -5.0478184130042791e-04</internalNodes>
          <leafValues>
            2.5288033485412598e-01 -3.9387419819831848e-01</leafValues></_>
        <_>
          <internalNodes>
            0 -1 82 3.5453384043648839e-04</internalNodes>
          <leafValues>
            -3.9987200498580933e-01 2.3761998116970062e-01</leafValues></_>
        <_>
          <internalNodes>
            0 -1 54 -2.9534632340073586e-03</internalNodes>
          <leafValues>
            4.8363968729972839e-01 -1.9109305739402771e-01</leafValues></_>
        <_>
          <internalNodes>
            0 -1 21 2.8956469148397446e-02</internalNodes>
          <leafValues>
            -7.3098659515380859e-01 1.4266338944435120e-01</leafValues></_>
        <_>
          <internalNodes>
            0 -1 64 2.4940115399658680e-03</internalNodes>
          <leafValues>
            -1.4831250905990601e-01 5.8396923542022705e-01</leafValues></_>
        <_>
          <internalNodes>
            0 -1 64 -1.7268229275941849e-03</internalNodes>
          <leafValues>
            4.1933888196945190e-01 -2.0940026640892029e-01</leafValues></_>
        <_>
          <internalNodes>
            0 -1 27 1.5356235206127167e-02</internalNodes>
          <leafValues>
            1.2338555604219437e-01 -8.0486875772476196e-01</leafValues></_>
        <_>
          <internalNodes>
            0 -1 7 -1.2675945460796356e-01</internalNodes>
          <leafValues>
            6.7904633283615112e-01 -1.3520567119121552e-01</leafValues></_>
        <_>
          <internalNodes>
            0 -1 29 -9.6908718114718795e-04</internalNodes>
          <leafValues>
            1.9893746078014374e-01 -5.0325399637222290e-01</leafValues></_>
        <_>
          <internalNodes>
            0 -1 37 1.3438166351988912e-03</internalNodes>
          <leafValues>
            -6.1786156892776489e-01 1.2137763202190399e-01</leafValues></_>
        <_>
          <internalNodes>
            0 -1 88 6.4314445480704308e-03</internalNodes>
          <leafValues>
            -1.8503075838088989e-01 4.6877676248550415e-01</leafValues></_>
        <_>
          <internalNodes>
            0 -1 88 -1.0242436081171036e-02</internalNodes>
          <leafValues>
            6.5061753988265991e-01 -1.3397958874702454e-01</leafValues></_>
        <_>
          <internalNodes>
            0 -1 1 2.2766822576522827e-01</internalNodes>
          <leafValues>
            -1.1850859969854355e-01 5.5556464195251465e-01</leafValues></_>
        <_>
          <internalNodes>
            0 -1 2 -1.8472906947135925e-01</internalNodes>
          <leafValues>
            8.1955730915069580e-01 -8.4131203591823578e-02</leafValues></_>
        <_>
          <internalNodes>
            0 -1 97 7.5269220396876335e-03</internalNodes>
          <leafValues>
            -1.6258651018142700e-01 4.0317535400390625e-01</leafValues></_>
        <_>
          <internalNodes>
            0 -1 43 3.6998393479734659e-03</internalNodes>
          <leafValues>
            -2.3690436780452728e-01 3.1580081582069397e-01</leafValues></_>
        <_>
          <internalNodes>
            0 -1 16 6.1410935595631599e-03</internalNodes>
          <leafValues>
            1.3369984924793243e-01 -5.9963566064834595e-01</leafValues></_></weakClassifiers></_></stages>
  <features>
    <_>
      <rects>
        <_>
          0 3 18 13 -1.</_>
        <_>
          6 3 6 13 3.</_></rects>
      <tilted>0</tilted></_>
    <_>
      <rects>
        <_>
          0 4 12 10 -1.</_>
        <_>
          6 4 6 10 2.</_></rects>
      <tilted>0</tilted></_>
    <_>
      <rects>
        <_>
          0 4 14 11 -1.</_>
        <_>
          7 4 7 11 2.</_></rects>
      <tilted>0</tilted></_>
    <_>
      <rects>
        <_>
          0 10 10 4 -1.</_>
        <_>
          5 10 5 4 2.</_></rects>
      <tilted>0</tilted></_>
    <_>
      <rects>
        <_>
          1 4 18 11 -1.</_>
        <_>
          7 4 6 11 3.</_></rects>
      <tilted>0</tilted></_>
    <_>
      <rects>
        <_>
          1 6 18 3 -1.</_>
        <_>
          7 6 6 3 3.</_></rects>
      <tilted>0</tilted></_>
    <_>
      <rects>
        <_>
          1 6 18 7 -1.</_>
        <_>
          7 6 6 7 3.</_></rects>
      <tilted>0</tilted></_>
    <_>
      <rects>
        <_>
          2 0 15 18 -1.</_>
        <_>
          2 6 15 6 3.</_></rects>
      <tilted>0</tilted></_>
    <_>
      <rects>
        <_>
          2 4 18 12 -1.</_>
        <_>
          8 4 6 12 3.</_></rects>
      <tilted>0</tilted></_>
    <_>
      <rects>
        <_>
          2 5 18 7 -1.</_>
        <_>
          8 5 6 7 3.</_></rects>
      <tilted>0</tilted></_>
    <_>
      <rects>
        <_>
          2 6 8 10 -1.</_>
        <_>
          6 6 4 10 2.</_></rects>
      <tilted>0</tilted></_>
    <_>
      <rects>
        <_>
          2 12 18 4 -1.</_>
        <_>
          8 12 6 4 3.</_></rects>
      <tilted>0</tilted></_>
    <_>
      <rects>
        <_>
          4 0 12 8 -1.</_>
        <_>
          4 4 12 4 2.</_></rects>
      <tilted>0</tilted></_>
    <_>
      <rects>
        <_>
          4 6 4 8 -1.</_>
        <_>
          6 6 2 8 2.</_></rects>
      <tilted>0</tilted></_>
    <_>
      <rects>
        <_>
          5 1 11 6 -1.</_>
        <_>
          5 4 11 3 2.</_></rects>
      <tilted>0</tilted></_>
    <_>
      <rects>
        <_>
          5 5 12 6 -1.</_>
        <_>
          5 5 6 3 2.</_>
        <_>
          11 8 6 3 2.</_></rects>
      <tilted>0</tilted></_>
    <_>
      <rects>
        <_>
          5 7 4 3 -1.</_>
        <_>
          5 8 4 1 3.</_></rects>
      <tilted>0</tilted></_>
    <_>
      <rects>
        <_>
          5 7 4 4 -1.</_>
        <_>
          5 9 4 2 2.</_></rects>
      <tilted>0</tilted></_>
    <_>
      <rects>
        <_>
          5 7 11 4 -1.</_>
        <_>
          5 9 11 2 2.</_></rects>
      <tilted>0</tilted></_>
    <_>
      <rects>
        <_>
          5 8 3 2 -1.</_>
        <_>
          6 8 1 2 3.</_></rects>
      <tilted>0</tilted></_>
    <_>
      <rects>
        <_>
          6 5 3 6 -1.</_>
        <_>
          6 7 3 2 3.</_></rects>
      <tilted>0</tilted></_>
    <_>
      <rects>
        <_>
          6 5 9 9 -1.</_>
        <_>
          6 8 9 3 3.</_></rects>
      <tilted>0</tilted></_>
    <_>
      <rects>
        <_>
          6 6 4 4 -1.</_>
        <_>
          8 6 2 4 2.</_></rects>
      <tilted>0</tilted></_>
    <_>
      <rects>
        <_>
          6 6 9 6 -1.</_>
        <_>
          9 6 3 6 3.</_></rects>
      <tilted>0</tilted></_>
    <_>
      <rects>
        <_>
          6 6 9 7 -1.</_>
        <_>
          9 6 3 7 3.</_></rects>
      <tilted>0</tilted></_>
    <_>
      <rects>
        <_>
          6 6 4 4 -1.</_>
        <_>
          6 8 4 2 2.</_></rects>
      <tilted>0</tilted></_>
    <_>
      <rects>
        <_>
          6 6 9 9 -1.</_>
        <_>
          6 9 9 3 3.</_></rects>
      <tilted>0</tilted></_>
    <_>
      <rects>
        <_>
          6 7 2 6 -1.</_>
        <_>
          6 9 2 2 3.</_></rects>
      <tilted>0</tilted></_>
    <_>
      <rects>
        <_>
          6 7 9 6 -1.</_>
        <_>
          9 7 3 6 3.</_></rects>
      <tilted>0</tilted></_>
    <_>
      <rects>
        <_>
          6 8 2 6 -1.</_>
        <_>
          6 11 2 3 2.</_></rects>
      <tilted>0</tilted></_>
    <_>
      <rects>
        <_>
          6 8 6 4 -1.</_>
        <_>
          6 10 6 2 2.</_></rects>
      <tilted>0</tilted></_>
    <_>
      <rects>
        <_>
          6 9 3 2 -1.</_>
        <_>
          7 9 1 2 3.</_></rects>
      <tilted>0</tilted></_>
    <_>
      <rects>
        <_>
          6 10 10 10 -1.</_>
        <_>
          6 15 10 5 2.</_></rects>
      <tilted>0</tilted></_>
    <_>
      <rects>
        <_>
          6 13 9 6 -1.</_>
        <_>
          6 16 9 3 2.</_></rects>
      <tilted>0</tilted></_>
    <_>
      <rects>
        <_>
          7 0 9 8 -1.</_>
        <_>
          7 4 9 4 2.</_></rects>
      <tilted>0</tilted></_>
    <_>
      <rects>
        <_>
          7 1 5 8 -1.</_>
        <_>
          7 5 5 4 2.</_></rects>
      <tilted>0</tilted></_>
    <_>
      <rects>
        <_>
          7 4 7 10 -1.</_>
        <_>
          7 9 7 5 2.</_></rects>
      <tilted>0</tilted></_>
    <_>
      <rects>
        <_>
          7 5 4 4 -1.</_>
        <_>
          9 5 2 4 2.</_></rects>
      <tilted>0</tilted></_>
    <_>
      <rects>
        <_>
          7 5 7 4 -1.</_>
        <_>
          7 7 7 2 2.</_></rects>
      <tilted>0</tilted></_>
    <_>
      <rects>
        <_>
          7 6 2 4 -1.</_>
        <_>
          7 6 1 2 2.</_>
        <_>
          8 8 1 2 2.</_></rects>
      <tilted>0</tilted></_>
    <_>
      <rects>
        <_>
          7 6 4 3 -1.</_>
        <_>
          9 6 2 3 2.</_></rects>
      <tilted>0</tilted></_>
    <_>
      <rects>
        <_>
          7 6 2 8 -1.</_>
        <_>
          7 10 2 4 2.</_></rects>
      <tilted>0</tilted></_>
    <_>
      <rects>
        <_>
          7 6 9 3 -1.</_>
        <_>
          10 6 3 3 3.</_></rects>
      <tilted>0</tilted></_>
    <_>
      <rects>
        <_>
          7 7 3 3 -1.</_>
        <_>
          8 7 1 3 3.</_></rects>
      <tilted>0</tilted></_>
    <_>
      <rects>
        <_>
          7 7 2 6 -1.</_>
        <_>
          7 9 2 2 3.</_></rects>
      <tilted>0</tilted></_>
    <_>
      <rects>
        <_>
          7 7 6 8 -1.</_>
        <_>
          7 11 6 4 2.</_></rects>
      <tilted>0</tilted></_>
    <_>
      <rects>
        <_>
          7 8 3 1 -1.</_>
        <_>
          8 8 1 1 3.</_></rects>
      <tilted>0</tilted></_>
    <_>
      <rects>
        <_>
          7 8 3 2 -1.</_>
        <_>
          8 8 1 2 3.</_></rects>
      <tilted>0</tilted></_>
    <_>
      <rects>
        <_>
          7 8 2 4 -1.</_>
        <_>
          7 10 2 2 2.</_></rects>
      <tilted>0</tilted></_>
    <_>
      <rects>
        <_>
          7 8 2 6 -1.</_>
        <_>
          7 11 2 3 2.</_></rects>
      <tilted>0</tilted></_>
    <_>
      <rects>
        <_>
          7 8 9 4 -1.</_>
        <_>
          7 10 9 2 2.</_></rects>
      <tilted>0</tilted></_>
    <_>
      <rects>
        <_>
          7 9 3 2 -1.</_>
        <_>
          8 9 1 2 3.</_></rects>
      <tilted>0</tilted></_>
    <_>
      <rects>
        <_>
          7 9 2 4 -1.</_>
        <_>
          7 11 2 2 2.</_></rects>
      <tilted>0</tilted></_>
    <_>
      <rects>
        <_>
          7 10 3 2 -1.</_>
        <_>
          8 10 1 2 3.</_></rects>
      <tilted>0</tilted></_>
    <_>
      <rects>
        <_>
          7 11 2 2 -1.</_>
        <_>
          7 11 1 1 2.</_>
        <_>
          8 12 1 1 2.</_></rects>
      <tilted>0</tilted></_>
    <_>
      <rects>
        <_>
          7 11 7 8 -1.</_>
        <_>
          7 15 7 4 2.</_></rects>
      <tilted>0</tilted></_>
    <_>
      <rects>
        <_>
          7 13 8 6 -1.</_>
        <_>
          7 16 8 3 2.</_></rects>
      <tilted>0</tilted></_>
    <_>
      <rects>
        <_>
          8 4 6 10 -1.</_>
        <_>
          8 4 3 5 2.</_>
        <_>
          11 9 3 5 2.</_></rects>
      <tilted>0</tilted></_>
    <_>
      <rects>
        <_>
          8 4 6 12 -1.</_>
        <_>
          8 8 6 4 3.</_></rects>
      <tilted>0</tilted></_>
    <_>
      <rects>
        <_>
          8 4 7 4 -1.</_>
        <_>
          8 6 7 2 2.</_></rects>
      <tilted>0</tilted></_>
    <_>
      <rects>
        <_>
          8 5 2 6 -1.</_>
        <_>
          8 5 1 3 2.</_>
        <_>
          9 8 1 3 2.</_></rects>
      <tilted>0</tilted></_>
    <_>
      <rects>
        <_>
          8 5 6 2 -1.</_>
        <_>
          11 5 3 2 2.</_></rects>
      <tilted>0</tilted></_>
    <_>
      <rects>
        <_>
          8 6 2 2 -1.</_>
        <_>
          8 6 1 1 2.</_>
        <_>
          9 7 1 1 2.</_></rects>
      <tilted>0</tilted></_>
    <_>
      <rects>
        <_>
          8 6 6 3 -1.</_>
        <_>
          10 6 2 3 3.</_></rects>
      <tilted>0</tilted></_>
    <_>
      <rects>
        <_>
          8 7 2 2 -1.</_>
        <_>
          8 7 1 1 2.</_>
        <_>
          9 8 1 1 2.</_></rects>
      <tilted>0</tilted></_>
    <_>
      <rects>
        <_>
          8 7 2 4 -1.</_>
        <_>
          8 7 1 2 2.</_>
        <_>
          9 9 1 2 2.</_></rects>
      <tilted>0</tilted></_>
    <_>
      <rects>
        <_>
          8 7 3 6 -1.</_>
        <_>
          8 9 3 2 3.</_></rects>
      <tilted>0</tilted></_>
    <_>
      <rects>
        <_>
          8 9 8 2 -1.</_>
        <_>
          12 9 4 2 2.</_></rects>
      <tilted>0</tilted></_>
    <_>
      <rects>
        <_>
          8 9 6 6 -1.</_>
        <_>
          8 12 6 3 2.</_></rects>
      <tilted>0</tilted></_>
    <_>
      <rects>
        <_>
          8 10 3 1 -1.</_>
        <_>
          9 10 1 1 3.</_></rects>
      <tilted>0</tilted></_>
    <_>
      <rects>
        <_>
          8 11 6 2 -1.</_>
        <_>
          10 11 2 2 3.</_></rects>
      <tilted>0</tilted></_>
    <_>
      <rects>
        <_>
          9 0 4 6 -1.</_>
        <_>
          9 3 4 3 2.</_></rects>
      <tilted>0</tilted></_>
    <_>
      <rects>
        <_>
          9 4 4 4 -1.</_>
        <_>
          9 6 4 2 2.</_></rects>
      <tilted>0</tilted></_>
    <_>
      <rects>
        <_>
          9 5 3 9 -1.</_>
        <_>
          9 8 3 3 3.</_></rects>
      <tilted>0</tilted></_>
    <_>
      <rects>
        <_>
          9 5 5 4 -1.</_>
        <_>
          9 7 5 2 2.</_></rects>
      <tilted>0</tilted></_>
    <_>
      <rects>
        <_>
          9 7 2 2 -1.</_>
        <_>
          9 7 1 1 2.</_>
        <_>
          10 8 1 1 2.</_></rects>
      <tilted>0</tilted></_>
    <_>
      <rects>
        <_>
          9 9 6 3 -1.</_>
        <_>
          12 9 3 3 2.</_></rects>
      <tilted>0</tilted></_>
    <_>
      <rects>
        <_>
          9 9 6 5 -1.</_>
        <_>
          12 9 3 5 2.</_></rects>
      <tilted>0</tilted></_>
    <_>
      <rects>
        <_>
          9 10 4 3 -1.</_>
        <_>
          9 11 4 1 3.</_></rects>
      <tilted>0</tilted></_>
    <_>
      <rects>
        <_>
          9 14 3 2 -1.</_>
        <_>
          9 15 3 1 2.</_></rects>
      <tilted>0</tilted></_>
    <_>
      <rects>
        <_>
          10 4 10 12 -1.</_>
        <_>
          15 4 5 12 2.</_></rects>
      <tilted>0</tilted></_>
    <_>
      <rects>
        <_>
          10 5 4 4 -1.</_>
        <_>
          10 7 4 2 2.</_></rects>
      <tilted>0</tilted></_>
    <_>
      <rects>
        <_>
          10 6 3 2 -1.</_>
        <_>
          11 6 1 2 3.</_></rects>
      <tilted>0</tilted></_>
    <_>
      <rects>
        <_>
          10 6 2 3 -1.</_>
        <_>
          10 7 2 1 3.</_></rects>
      <tilted>0</tilted></_>
    <_>
      <rects>
        <_>
          10 7 1 3 -1.</_>
        <_>
          10 8 1 1 3.</_></rects>
      <tilted>0</tilted></_>
    <_>
      <rects>
        <_>
          10 7 6 4 -1.</_>
        <_>
          13 7 3 4 2.</_></rects>
      <tilted>0</tilted></_>
    <_>
      <rects>
        <_>
          10 9 4 4 -1.</_>
        <_>
          10 9 2 2 2.</_>
        <_>
          12 11 2 2 2.</_></rects>
      <tilted>0</tilted></_>
    <_>
      <rects>
        <_>
          10 10 3 6 -1.</_>
        <_>
          10 13 3 3 2.</_></rects>
      <tilted>0</tilted></_>
    <_>
      <rects>
        <_>
          10 11 3 3 -1.</_>
        <_>
          10 12 3 1 3.</_></rects>
      <tilted>0</tilted></_>
    <_>
      <rects>
        <_>
          11 5 2 10 -1.</_>
        <_>
          11 10 2 5 2.</_></rects>
      <tilted>0</tilted></_>
    <_>
      <rects>
        <_>
          11 5 8 12 -1.</_>
        <_>
          15 5 4 12 2.</_></rects>
      <tilted>0</tilted></_>
    <_>
      <rects>
        <_>
          11 9 2 2 -1.</_>
        <_>
          12 9 1 2 2.</_></rects>
      <tilted>0</tilted></_>
    <_>
      <rects>
        <_>
          11 9 2 4 -1.</_>
        <_>
          11 9 1 2 2.</_>
        <_>
          12 11 1 2 2.</_></rects>
      <tilted>0</tilted></_>
    <_>
      <rects>
        <_>
          11 10 2 2 -1.</_>
        <_>
          11 10 1 1 2.</_>
        <_>
          12 11 1 1 2.</_></rects>
      <tilted>0</tilted></_>
    <_>
      <rects>
        <_>
          11 11 1 3 -1.</_>
        <_>
          11 12 1 1 3.</_></rects>
      <tilted>0</tilted></_>
    <_>
      <rects>
        <_>
          12 5 8 10 -1.</_>
        <_>
          16 5 4 10 2.</_></rects>
      <tilted>0</tilted></_>
    <_>
      <rects>
        <_>
          12 7 4 7 -1.</_>
        <_>
          14 7 2 7 2.</_></rects>
      <tilted>0</tilted></_>
    <_>
      <rects>
        <_>
          12 8 3 3 -1.</_>
        <_>
          13 8 1 3 3.</_></rects>
      <tilted>0</tilted></_>
    <_>
      <rects>
        <_>
          12 9 3 1 -1.</_>
        <_>
          13 9 1 1 3.</_></rects>
      <tilted>0</tilted></_>
    <_>
      <rects>
        <_>
          12 9 3 2 -1.</_>
        <_>
          13 9 1 2 3.</_></rects>
      <tilted>0</tilted></_>
    <_>
      <rects>
        <_>
          12 10 2 2 -1.</_>
        <_>
          12 10 1 1 2.</_>
        <_>
          13 11 1 1 2.</_></rects>
      <tilted>0</tilted></_>
    <_>
      <rects>
        <_>
          13 8 2 3 -1.</_>
        <_>
          14 8 1 3 2.</_></rects>
      <tilted>0</tilted></_>
    <_>
      <rects>
        <_>
          13 9 2 6 -1.</_>
        <_>
          13 9 1 3 2.</_>
        <_>
          14 12 1 3 2.</_></rects>
      <tilted>0</tilted></_></features></cascade>
</opencv_storage>
