<?xml version="1.0"?>
<opencv_storage>
<cascade>
  <stageType>BOOST</stageType>
  <featureType>HAAR</featureType>
  <height>20</height>
  <width>20</width>
  <stageParams>
    <boostType>GAB</boostType>
    <minHitRate>9.9500000476837158e-01</minHitRate>
    <maxFalseAlarm>5.0000000000000000e-01</maxFalseAlarm>
    <weightTrimRate>9.4999999999999996e-01</weightTrimRate>
    <maxDepth>1</maxDepth>
    <maxWeakCount>100</maxWeakCount></stageParams>
  <featureParams>
    <maxCatCount>0</maxCatCount>
    <featSize>1</featSize>
    <mode>BASIC</mode></featureParams>
  <stageNum>5</stageNum>
  <stages>
    <!-- stage 0 -->
    <_>
      <maxWeakCount>3</maxWeakCount>
      <stageThreshold>-9.3897908926010132e-01</stageThreshold>
      <weakClassifiers>
        <_>
          <internalNodes>
            0 -1 8 3.7041664123535156e-02</internalNodes>
          <leafValues>
            -7.8091108798980713e-01 8.2771897315979004e-01</leafValues></_>
        <_>
          <internalNodes>
            0 -1 23 -2.2187400609254837e-02</internalNodes>
          <leafValues>
            6.9698071479797363e-01 -7.4647837877273560e-01</leafValues></_>
        <_>
          <internalNodes>
            0 -1 26 7.9093165695667267e-03</internalNodes>
          <leafValues>
            -7.5300896167755127e-01 5.8841031789779663e-01</leafValues></_></weakClassifiers></_>
    <!-- stage 1 -->
    <_>
      <maxWeakCount>8</maxWeakCount>
      <stageThreshold>-1.5594408512115479e+00</stageThreshold>
      <weakClassifiers>
        <_>
          <internalNodes>
            0 -1 20 6.6207185387611389e-02</internalNodes>
          <leafValues>
            -6.1269146203994751e-01 7.4784278869628906e-01</leafValues></_>
        <_>
          <internalNodes>
            0 -1 7 3.4965813159942627e-02</internalNodes>
          <leafValues>
            -6.8559455871582031e-01 5.3033226728439331e-01</leafValues></_>
        <_>
          <internalNodes>
            0 -1 18 -8.9604745153337717e-04</internalNodes>
          <leafValues>
            3.0285710096359253e-01 -6.5102285146713257e-01</leafValues></_>
        <_>
          <internalNodes>
            0 -1 30 -4.6826004981994629e-03</internalNodes>
          <leafValues>
            5.5532956123352051e-01 -3.6889833211898804e-01</leafValues></_>
        <_>
          <internalNodes>
            0 -1 19 5.9774473309516907e-02</internalNodes>
          <leafValues>
            -2.3274850845336914e-01 8.7109559774398804e-01</leafValues></_>
        <_>
          <internalNodes>
            0 -1 25 7.7879293821752071e-03</internalNodes>
          <leafValues>
            -5.5083715915679932e-01 4.0127313137054443e-01</leafValues></_>
        <_>
          <internalNodes>
            0 -1 5 -8.0187484622001648e-02</internalNodes>
          <leafValues>
            7.6617532968521118e-01 -2.1376663446426392e-01</leafValues></_>
        <_>
          <internalNodes>
            0 -1 2 2.4962526559829712e-01</internalNodes>
          <leafValues>
            -1.7770324647426605e-01 8.0123382806777954e-01</leafValues></_></weakClassifiers></_>
    <!-- stage 2 -->
    <_>
      <maxWeakCount>8</maxWeakCount>
      <stageThreshold>-9.8311460018157959e-01</stageThreshold>
      <weakClassifiers>
        <_>
          <internalNodes>
            0 -1 10 4.1039705276489258e-02</internalNodes>
          <leafValues>
            -6.3942307233810425e-01 7.0664209127426147e-01</leafValues></_>
        <_>
          <internalNodes>
            0 -1 26 9.9872844293713570e-03</internalNodes>
          <leafValues>
            -6.6393142938613892e-01 4.3974289298057556e-01</leafValues></_>
        <_>
          <internalNodes>
            0 -1 23 -2.3104652762413025e-02</internalNodes>
          <leafValues>
            3.9037549495697021e-01 -7.0194292068481445e-01</leafValues></_>
        <_>
          <internalNodes>
            0 -1 15 5.0714984536170959e-03</internalNodes>
          <leafValues>
            -3.4935086965560913e-01 6.2550854682922363e-01</leafValues></_>
        <_>
          <internalNodes>
            0 -1 29 2.6242621243000031e-03</internalNodes>
          <leafValues>
            -2.9851722717285156e-01 7.1506983041763306e-01</leafValues></_>
        <_>
          <internalNodes>
            0 -1 27 8.0697774887084961e-02</internalNodes>
          <leafValues>
            -2.0848515629768372e-01 8.0565553903579712e-01</leafValues></_>
        <_>
          <internalNodes>
            0 -1 1 9.4341546297073364e-02</internalNodes>
          <leafValues>
            -2.8994619846343994e-01 6.1708068847656250e-01</leafValues></_>
        <_>
          <internalNodes>
            0 -1 11 -4.6148344874382019e-02</internalNodes>
          <leafValues>
            -8.5458523035049438e-01 1.7948214709758759e-01</leafValues></_></weakClassifiers></_>
    <!-- stage 3 -->
    <_>
      <maxWeakCount>7</maxWeakCount>
      <stageThreshold>-1.0738646984100342e+00</stageThreshold>
      <weakClassifiers>
        <_>
          <internalNodes>
            0 -1 8 3.9371922612190247e-02</internalNodes>
          <leafValues>
            -7.3066663742065430e-01 6.8800002336502075e-01</leafValues></_>
        <_>
          <internalNodes>
            0 -1 28 -3.0933780362829566e-04</internalNodes>
          <leafValues>
            5.8044195175170898e-01 -3.9068642258644104e-01</leafValues></_>
        <_>
          <internalNodes>
            0 -1 31 7.0691956207156181e-03</internalNodes>
          <leafValues>
            -2.6426905393600464e-01 8.0503958463668823e-01</leafValues></_>
        <_>
          <internalNodes>
            0 -1 16 -2.7588421944528818e-03</internalNodes>
          <leafValues>
            3.2699748873710632e-01 -7.3760980367660522e-01</leafValues></_>
        <_>
          <internalNodes>
            0 -1 22 -3.7131034769117832e-03</internalNodes>
          <leafValues>
            7.9721707105636597e-01 -3.2060927152633667e-01</leafValues></_>
        <_>
          <internalNodes>
            0 -1 0 -5.0781477242708206e-02</internalNodes>
          <leafValues>
            8.8241124153137207e-01 -1.3854852318763733e-01</leafValues></_>
        <_>
          <internalNodes>
            0 -1 13 2.1228075027465820e-02</internalNodes>
          <leafValues>
            -4.3126752972602844e-01 4.4391772150993347e-01</leafValues></_></weakClassifiers></_>
    <!-- stage 4 -->
    <_>
      <maxWeakCount>11</maxWeakCount>
      <stageThreshold>-1.3483945131301880e+00</stageThreshold>
      <weakClassifiers>
        <_>
          <internalNodes>
            0 -1 14 -1.7855826765298843e-02</internalNodes>
          <leafValues>
            5.3852295875549316e-01 -7.0505052804946899e-01</leafValues></_>
        <_>
          <internalNodes>
            0 -1 21 2.3260912857949734e-03</internalNodes>
          <leafValues>
            -2.7942755818367004e-01 7.5825113058090210e-01</leafValues></_>
        <_>
          <internalNodes>
            0 -1 24 8.2178376615047455e-03</internalNodes>
          <leafValues>
            -4.6960201859474182e-01 4.3166840076446533e-01</leafValues></_>
        <_>
          <internalNodes>
            0 -1 30 -7.2534801438450813e-03</internalNodes>
          <leafValues>
            5.8843433856964111e-01 -2.5284048914909363e-01</leafValues></_>
        <_>
          <internalNodes>
            0 -1 17 4.5507578179240227e-03</internalNodes>
          <leafValues>
            -3.2753285765647888e-01 6.0600298643112183e-01</leafValues></_>
        <_>
          <internalNodes>
            0 -1 3 -2.3261713981628418e-01</internalNodes>
          <leafValues>
            8.9515411853790283e-01 -1.3412372767925262e-01</leafValues></_>
        <_>
          <internalNodes>
            0 -1 12 3.0535133555531502e-03</internalNodes>
          <leafValues>
            -6.5206295251846313e-01 2.6958408951759338e-01</leafValues></_>
        <_>
          <internalNodes>
            0 -1 9 3.1681835651397705e-02</internalNodes>
          <leafValues>
            -6.1063235998153687e-01 2.1310679614543915e-01</leafValues></_>
        <_>
          <internalNodes>
            0 -1 6 1.2885859236121178e-02</internalNodes>
          <leafValues>
            1.6545945405960083e-01 -7.6322031021118164e-01</leafValues></_>
        <_>
          <internalNodes>
            0 -1 21 -2.0219213329255581e-03</internalNodes>
          <leafValues>
            6.8591660261154175e-01 -2.0751270651817322e-01</leafValues></_>
        <_>
          <internalNodes>
            0 -1 4 2.5933757424354553e-02</internalNodes>
          <leafValues>
            -1.4792008697986603e-01 6.1296278238296509e-01</leafValues></_></weakClassifiers></_></stages>
  <features>
    <_>
      <rects>
        <_>
          0 10 10 4 -1.</_>
        <_>
          5 10 5 4 2.</_></rects>
      <tilted>0</tilted></_>
    <_>
      <rects>
        <_>
          1 6 18 3 -1.</_>
        <_>
          7 6 6 3 3.</_></rects>
      <tilted>0</tilted></_>
    <_>
      <rects>
        <_>
          1 6 18 7 -1.</_>
        <_>
          7 6 6 7 3.</_></rects>
      <tilted>0</tilted></_>
    <_>
      <rects>
        <_>
          2 4 18 12 -1.</_>
        <_>
          8 4 6 12 3.</_></rects>
      <tilted>0</tilted></_>
    <_>
      <rects>
        <_>
          4 6 4 8 -1.</_>
        <_>
          6 6 2 8 2.</_></rects>
      <tilted>0</tilted></_>
    <_>
      <rects>
        <_>
          5 1 11 6 -1.</_>
        <_>
          5 4 11 3 2.</_></rects>
      <tilted>0</tilted></_>
    <_>
      <rects>
        <_>
          5 7 4 4 -1.</_>
        <_>
          5 9 4 2 2.</_></rects>
      <tilted>0</tilted></_>
    <_>
      <rects>
        <_>
          6 6 9 6 -1.</_>
        <_>
          9 6 3 6 3.</_></rects>
      <tilted>0</tilted></_>
    <_>
      <rects>
        <_>
          6 6 9 7 -1.</_>
        <_>
          9 6 3 7 3.</_></rects>
      <tilted>0</tilted></_>
    <_>
      <rects>
        <_>
          6 6 9 9 -1.</_>
        <_>
          6 9 9 3 3.</_></rects>
      <tilted>0</tilted></_>
    <_>
      <rects>
        <_>
          6 7 9 6 -1.</_>
        <_>
          9 7 3 6 3.</_></rects>
      <tilted>0</tilted></_>
    <_>
      <rects>
        <_>
          7 4 7 10 -1.</_>
        <_>
          7 9 7 5 2.</_></rects>
      <tilted>0</tilted></_>
    <_>
      <rects>
        <_>
          7 6 4 3 -1.</_>
        <_>
          9 6 2 3 2.</_></rects>
      <tilted>0</tilted></_>
    <_>
      <rects>
        <_>
          7 6 9 3 -1.</_>
        <_>
          10 6 3 3 3.</_></rects>
      <tilted>0</tilted></_>
    <_>
      <rects>
        <_>
          7 7 6 8 -1.</_>
        <_>
          7 11 6 4 2.</_></rects>
      <tilted>0</tilted></_>
    <_>
      <rects>
        <_>
          7 8 3 2 -1.</_>
        <_>
          8 8 1 2 3.</_></rects>
      <tilted>0</tilted></_>
    <_>
      <rects>
        <_>
          7 8 2 6 -1.</_>
        <_>
          7 11 2 3 2.</_></rects>
      <tilted>0</tilted></_>
    <_>
      <rects>
        <_>
          7 9 3 2 -1.</_>
        <_>
          8 9 1 2 3.</_></rects>
      <tilted>0</tilted></_>
    <_>
      <rects>
        <_>
          7 9 2 4 -1.</_>
        <_>
          7 11 2 2 2.</_></rects>
      <tilted>0</tilted></_>
    <_>
      <rects>
        <_>
          7 13 8 6 -1.</_>
        <_>
          7 16 8 3 2.</_></rects>
      <tilted>0</tilted></_>
    <_>
      <rects>
        <_>
          8 4 6 12 -1.</_>
        <_>
          8 8 6 4 3.</_></rects>
      <tilted>0</tilted></_>
    <_>
      <rects>
        <_>
          8 6 2 2 -1.</_>
        <_>
          8 6 1 1 2.</_>
        <_>
          9 7 1 1 2.</_></rects>
      <tilted>0</tilted></_>
    <_>
      <rects>
        <_>
          8 7 2 4 -1.</_>
        <_>
          8 7 1 2 2.</_>
        <_>
          9 9 1 2 2.</_></rects>
      <tilted>0</tilted></_>
    <_>
      <rects>
        <_>
          8 9 6 6 -1.</_>
        <_>
          8 12 6 3 2.</_></rects>
      <tilted>0</tilted></_>
    <_>
      <rects>
        <_>
          8 11 6 2 -1.</_>
        <_>
          10 11 2 2 3.</_></rects>
      <tilted>0</tilted></_>
    <_>
      <rects>
        <_>
          9 4 4 4 -1.</_>
        <_>
          9 6 4 2 2.</_></rects>
      <tilted>0</tilted></_>
    <_>
      <rects>
        <_>
          9 5 5 4 -1.</_>
        <_>
          9 7 5 2 2.</_></rects>
      <tilted>0</tilted></_>
    <_>
      <rects>
        <_>
          11 5 8 12 -1.</_>
        <_>
          15 5 4 12 2.</_></rects>
      <tilted>0</tilted></_>
    <_>
      <rects>
        <_>
          11 10 2 2 -1.</_>
        <_>
          11 10 1 1 2.</_>
        <_>
          12 11 1 1 2.</_></rects>
      <tilted>0</tilted></_>
    <_>
      <rects>
        <_>
          12 9 3 1 -1.</_>
        <_>
          13 9 1 1 3.</_></rects>
      <tilted>0</tilted></_>
    <_>
      <rects>
        <_>
          13 8 2 3 -1.</_>
        <_>
          14 8 1 3 2.</_></rects>
      <tilted>0</tilted></_>
    <_>
      <rects>
        <_>
          13 9 2 6 -1.</_>
        <_>
          13 9 1 3 2.</_>
        <_>
          14 12 1 3 2.</_></rects>
      <tilted>0</tilted></_></features></cascade>
</opencv_storage>
